-1.16325032538;2.01876402721;2.12393560714;1.63168476748;-0.460705204107;-0.257527820109;0.608269366716;-0.421255926345;-1.81968033592;-0.175590427398;-2.01996773499;1.43214799156;1.47205837201;1.25306881899;1.02313317881;-1.8139537807;-1.01005944105;-1.61238725193;0.752921110747;-3.16433122858;-2.35437757018;-2.78755654983;-1.74976328928;0.885522236436;-2.61929778005;0.784922437429;-2.49638974298;1.80467871619;2.94990625413;-0.846690708827;-0.251570480241;1.0578257144;0.830537074135;-1.21470624938;-0.310812273692;-1.52829263216;-0.034105605651;2.52539200015;-0.613437033811;1.45096109224;2.16747950258;-1.66164426619;-1.84532723065;0.713246048973;-0.66869491669;2.23908837569;0.492352866811;1.29912377103;1.06192821385;-1.48658783267;0.357423671407;1.99445167563;1.16703106287;-0.3940424671;-2.00567258882;-2.41742423461;-0.648659062588;-2.75078708725;0.0685384050235;-0.854449304586;-2.17614004629;1.93450907711;-0.305138034063;1.67132260082;2.84805030667;-3.5477113962;0.623034486152;-1.80105789588;-1.63455084087;2.52285109749;1.10590684455;0.132824806562;1.89590181562;-1.35225446932;2.84768519934;0.472472647319;1.89370594052;-0.844207819128;-0.195327532571;-2.5358968387;2.35522439773;-0.36079873222;-0.410029255124;-0.359900815367;0.552401830425;-1.57402223162;0.431080569206;0.621554301723;-2.12754552294;-1.7235297772;-1.11844108632;-2.83524553824;0.205710871678;-0.925642251634;-0.836018879755;-1.65805290699;-2.97158716715;-1.26776389327;0.815792830618;1.91534025639;0.506826893734;-1.67913804974;-0.157335930495;-0.967278807651;1.11676548476;-0.995716419879;3.1920773531;-2.30392997123;-2.47794467341;-0.321879039882;-1.12231831357;-2.81880825843;0.536825950605;2.16812899917;0.31865735913;-0.608837773217;0.82444288084;0.148114780554;-1.53522769769;-0.346308522626;0.642795935975;3.25667178498;-0.594243375962;2.48557801349;0.423947395453;-0.297494868146;1.00381942935;0.248831296556;-0.135058378266;-0.428631571819;-2.09905115505;2.64637862613;-0.0755933742114;4.27405056127;-0.364660764507;1.55634859923;0.0589413744403;2.34757198539;0.850599988974;-3.00773945714;-2.94124481351;0.782310745344;-1.09046380642;1.11401007576;-0.872330689799;-0.147142124203;-1.90873923738;-0.247099838661;-0.265209519736;1.74503754978;-1.15253022563;1.51979720874;-0.985285839664;1.06124243559;1.73611222372;-1.6186537674;0.504056151077;-0.409932210811;1.06134716123;0.607905364411;0.821024367644;0.00257723846684;-0.561410402182;-1.52720230297;-0.613461851274;0.932832500898;-1.01193983166;-1.40316324286;-0.373143827923;-0.466513645886;-1.63247412767;-0.568923855967;3.64873176644;-0.33764842194;0.70018406574;0.140132394411;-1.78625601865;-0.449955135051;-3.55670833355;0.487478551338;-0.133148662454;-2.62447106053;0.979664813499;-0.0614814146258;2.85494432324;-0.510389607156;-1.38410179315;-3.09412836148;-2.95317653139;1.0976419944;-0.547807652384;-3.8822627563;2.93481988247;-2.46307154337;-1.95956016086;0.591605526799;1.45293762368;-1.14583580164;0.103219947256;0.532070911994;0.633191833012;2.91364652196;-1.32828359001;2.13124942277;0.31844978647;-0.846375992956;-3.7748027814;0.434764437975;0.291528499976;-0.264620662024;2.39469862064;-1.8602576425;-2.10098182995;0.583602150174;0.842547464345;-0.0831454384675;2.76297952887;1.23197434478;0.184247859109;-0.804598839409;1.31454206747;-1.78159765583;-0.448520528246;0.942550129072;-0.422190775086;-2.29860978088;1.41002759731;0.529036130045;1.63959102096;-2.95100315209;1.98893198848;-0.911448452268;2.02382633972;-1.17904010214;-1.42865960792;0.579202213781;0.152883354761;-1.2972914891;-0.662209632066;0.668216828899;-2.70593716651;4.05105217364;0.737800126558;0.565201246053;1.7997961516;-0.489640003351;0.71581403913;0.693669533825;-0.557696777971;-0.598480314594;-0.958465169189;-0.233495334045;-1.64029191141;0.861680335777;1.45881567132;-0.898139757103;2.12396386297;-1.13661122649;-1.50256950248;0.885900724895;-3.97078781442;1.10497139048;0.774767486675;2.45568524816;-2.7779481674;2.4932943931;-0.610378816574;1.25815269761;-0.201497405099;0.729081037171;0.572853198357;-0.657828309413;3.01368763554;-2.17665102844;-0.234405141587;-0.52411181735;0.0917124604308;0.668478195351;2.37777923596;-1.26184408385;-0.546474552709;-2.81824916285;0.0519153270793;3.66571389792;-0.0799681593539;-0.587020559033;0.0658738039245;-1.37792598168;-2.12687298184;0.174500396232;-0.380460682712;1.90038398741;1.09901318333;0.331337706688;-0.453701527441;-2.46429621673;-0.482980806852;0.321162803227;-1.14467873174;0.4523081205;-1.96352944555;1.98705720286;2.0868683566;-0.671642524619;-0.386587028286;-1.36921761477;2.3320126424;-0.679011149206;-0.806756305763;0.01909236914;-0.738973211911;-2.47213049192;1.83869319021;2.65741427578;0.884169273297;3.78559910841;0.934658856359;0.0306257559978;1.3190214164;1.73224456145;-1.24800901781;0.196974091912;-0.856517016058;-0.727341876721;-2.89521231615;-0.531935844981;-2.97899183928;0.297595689637;-0.635464821117;1.23086070379;0.364753443535;1.8806567656;-0.265914217297;-2.04341920728;-0.279464919346;1.24124904252;1.22655771161;-0.695903556165;0.230487480766;0.139654234268;-0.300170880514;-2.91176013483;-1.65997903211;-1.76101800252;-1.37189368418;-0.0972234778279;-1.14113027837;1.81054791329;-0.354703771101;-2.5342963481;-1.17140064662;-1.67570832103;-2.5674288934;1.09246333963;-2.31134803149;-0.336537592904;-1.69940688138;-0.579348212088;0.486011968647;-1.97248699566;2.6492411804;-1.33354685396;0.0261291509553;0.0641077974056;2.91672762017;-1.98759664387;-2.92216937149;1.32144006608;-1.65611791284;2.9409128938;2.18427957332;0.324855215365;-2.02265159042;-0.608936969188;-1.59143980263;1.01894331812;1.88728469685;-1.73091051615;0.187193442705;-1.6913778919;2.04353142252;-1.3415264105;-0.995647682893;1.43848803897;-1.43243657927;-0.540804529123;-1.73077722978;-1.65776936125;1.37453382933;0.842137263647;0.470586163196;-0.545103975059;1.95803280357;0.225127446829;-2.58403688608;-0.532256498207;2.384216507;0.0165045644445;1.14438198931;1.40554497657;-1.90392825731;-1.19957229659;2.26836133188;0.997258712715;-2.43248375869;-2.07549023161;-0.614970540333;-3.50860064667;1.41660188489;0.273274510171;-1.87517272861;-1.0292392153;-0.614365749005;-1.03966917344;-1.57357366049;-0.767724448998;-0.63866624417;0.167744869314;1.08955887652;-3.68496807473;1.46010008586;-2.01726440769;-1.25875057869;3.56058023511;2.43503558972;-1.09555028094;0.904314979351;-1.3254629621;1.97566078025;2.38691228195;-2.6186976716;0.385913669297;-2.21631300315;-0.73839543218;0.374213716693;2.28996366879;-0.543020778166;0.82827892813;-1.07891708541;-1.33646198216;0.20561975883;-1.61282921261;-1.66464789568;1.65223770381;-0.639476812682;0.165486368376;-1.92422266749;-1.15768679351;1.21059554884;0.217632325537;-0.643226090052;0.168655449591;-3.35757386917;-2.58644138017;-1.21566665967;2.06582654198;-1.81614603061;0.510248367844;-0.781519188946;-0.362892445136;2.36314758227;0.622848308647;1.75541955344;1.36406387585;-1.42865513337;-0.371279028838;-2.55129527637;-0.434778737004;-0.490956828125;0.531255817597;-0.741925656209;-3.1389370668;-0.379966611387;1.78241538559;-0.913010596394;-1.39993301633;0.838475906707;0.157155274117;-2.72782206072;-2.4251549204;-1.77015815679;-0.265695990486;-1.57252430253;0.906685834844;0.13414006084;-0.682386114297;-0.948272350524;0.922290008096;-0.997315654802;-2.14419437716;-1.02630238289;1.19603689978;-0.234424607357;-0.0386092738471;2.10575581564;-2.5641962947;-0.000830421000315;-0.748819492221;-2.24920529985;0.498670473414;2.75608129803;0.735745510087;-2.29688482352;-2.14710213235;0.835189396102;1.44982334086;-2.75344242541;1.23020622813;0.837878064474;1.87691211523;2.24992069148;-0.00770733111367;-3.160570128;1.04447110639;-0.673921804802;0.336575751902;-0.449112329798;-0.166104628647;0.620727950028;2.84767841376;-2.86536273943;-0.83506272511;-0.349107340575;-0.517255478123;-1.59722016484;-0.549755510486;-0.474899877923;-0.416980416458;-2.53134645463;0.597927753932;-0.995163349736;0.822302256324;-0.592149526139;-0.33718854594;-2.13697081585;-2.66108411228;1.33727008217;1.00896370723;0.233594161753;0.285454128147;-3.59900875176;-2.11465188784;1.59950672105;0.990482385408;2.7824155316;-1.52657910342;-0.427622881102;-1.02329845792;-1.33288731885;1.2114224031;0.968686005644;-0.0101270714057;-3.02304515276;0.0893380666438;-2.16223217982;0.553389559377;-2.38526786243;0.217534898268;-0.433270692797;0.390167509909;0.656496600607;-1.02714633643;-0.636390089106;-1.61091627844;-0.12101102706;0.81913878244;1.4218172823;2.12206112844;2.06239042596;-2.67857463706;2.31154048034;0.473318362754;0.503019585964;-0.363334249985;2.7736488775;-1.25100377841;1.5000039826;1.79428290441;-1.80437233599;-1.16568084554;1.55132116756;3.23933753245;1.59116153065;0.854048418761;-2.49251805616;2.55706426885;0.376644223348;1.81657238693;1.05237377091;-0.346022629376;0.090480485294;-1.72464999958;1.17492015752;-2.03097257626;-0.196094635329;1.2965417172;-0.25786293933;2.06200628119;0.134967634491;0.480040314569;-0.902400246099;-0.386222701713;1.75007156815;1.61468434608;1.08106789409;1.70420332085;-2.84995623324;-1.50705139517;2.45125208994;-0.226275884195;-0.997175719038;2.24864431731;-0.812304755525;0.587131395651;-1.71075078476;-0.918562951052;-1.68635568826;-2.49803855638;1.62107815513;0.297459181988;-0.693224534553;-0.308099433624;0.441977273679;0.808372317053;-1.30943578657;0.422998144737;-0.671931505394;-0.840915554538;-1.21496387263;2.78949571213;-1.58790332079;-1.3355303862;-0.0792901484605;-2.52874681117;0.555863126448;1.60214354419;2.58771518999;-1.22425989065;1.09012552249;0.390824136394;1.34961049717;1.60634707635;1.85879161619;-1.86811580736;-2.45791531758;0.516359491678;-0.13032801556;0.261842607944;0.0950813341478;1.2622420825;0.698215489217;1.05649006207;0.636104648094;3.89384089169;2.02738160479;-0.740577316413;0.992810222704;0.160413195814;2.37119749745;0.941626908553;1.74323873039;-1.20085674805;1.55661351229;1.7375827402;-0.503666707173;-0.986034542701;1.32541260906;-2.61794336624;0.732218763258;0.108519409679;-0.548458877409;-1.08728376671;-2.28328356742;1.71574984166;2.74014775324;-2.76649747945;0.832795577689;-0.890177724217;0.0530583568458;1.09695895301;-0.936352499765;-2.28690560298;-1.09797875536;-2.2093083429;-0.856912244654;1.18300897634;0.55917410426;-0.530426147448;-1.10212718772;2.6896697438;0.839396514978;-1.72090103163;0.0268736531551;-2.09074883094;1.57009857968;-0.69615891549;-1.37467913457;-0.785885186232;1.37090646567;-2.0591879015;-0.843277930482;0.561557674407;-2.4962589694;0.361721845287;-0.316534083371;0.146289093254;-0.428023055862;1.77616537713;0.500870498915;-3.3175703187;0.509216979913;-0.492074971266;-0.812028637134;0.670433575994;-0.491951397715;0.931734826388;-1.05525242671;-1.62527997233;1.38485751637;-1.26238319255;-0.411128297677;-0.0600818990047;0.123409600171;-0.49707962241;-2.83309577692;0.713651127167;-2.63630539343;2.23853071843;-0.490184385204;1.92207600394;0.740591968638;-1.28341691408;0.676266561293;-0.514813673633;1.32713541809;-0.700605738631;2.18352377739;3.55844934641;1.62480011032;-1.34589072368;-1.05933052589;1.54789475213;-1.66979420649;0.97716141154;-0.574024448865;-1.85047126231;1.38267757322;-1.29466367809;0.406172407467;-0.368305102691;-3.51420559338;-1.48618574009;0.777996441315;1.51410475966;0.461946402;0.8293459682;-0.193136355796;-2.1425700251;1.14656537734;0.973823075824;2.38317242084;0.839164234653;-2.50085235973;-0.0773412141511;-3.74261494158;1.975056836;0.701003474248;-0.226692451922;-1.20607087536;-0.523701710705;-1.3711225586;-1.00048162704;0.8954505258;0.172657304723;2.33883255581;-2.02095937683;-0.874584830735;-0.815467968188;0.828525742594;1.1550105422;0.615015727247;-2.03682569479;1.50551055485;-0.125293190648;2.56210453728;2.32616119145;-2.09950404386;2.23204149522;1.35620419322;1.34870213612;-0.884602592764;1.03694274685;-0.709273627299;1.7666910277;-1.6703088167;0.927682283468;1.84679451627;0.419023953065;0.216889546463;0.719309982065;1.80569099553;-0.409914928631;-0.740755528555;3.27481354658;-0.0843675751779;1.554224728;-1.63887931658;-1.22213622254;1.38106408031;1.01214746519;-0.570572959713;-0.322568969592;2.49562981753;-0.904653188312;-0.748839426827;1.86123612832;-0.176118496569;-1.13069134079;1.28851400426;2.33616743642;0.440824050415;-1.82220861263;2.73667074292;0.0957370548914;0.93786944021;2.98493568421;0.0445786345934;1.98342462667;-0.923425774821;-1.26369760287;-0.821201981403;0.539063076035;-0.715336384498;0.669751215915;-0.214966657396;1.92717800092;-2.41461395778;1.54500290304;2.54900517628;-0.231961931853;1.58286009927;-2.61344231252;-1.56670294344;-0.0469535445597;2.06664159498;0.388371457925;-0.165290215419;2.06140931104;-1.82001002417;4.48780790641;-1.58998417248;2.57564945759;1.13396486326;-1.82149881552;0.165685409876;1.12008758954;-0.517966938713;2.11322883871;0.319720960889;1.70107320743;2.94293258828;2.69864413675;0.0520339156618;-0.4767898307;2.04157646504;0.171566648703;0.405298112097;-2.65349435298;-0.00819715332777;-1.37018289952;-0.920795807174;1.02142249003;-1.20294106975;-0.0388433199188;-0.889943564173;1.77108287674;-2.13338472512;0.643672932505;-1.08813448652;1.2871332547;0.148217122339;0.587680568192;1.9133893083;-1.43140666091;-2.48062252946;0.136943089165;0.718964168307;1.29122849026;0.0775812788963;1.21498430891;-0.793626934788;-1.07782512036;-1.82512746234;0.0979289761938;2.29534312772;-1.27892855951;0.596468944479;-3.60662354658;0.965541265443;0.74548811565;0.747774951303;2.82656662472;-2.6509289046;0.874515203672;0.147467526469;3.30838621118;-0.223433008295;0.189586945365;1.64334364574;-0.418287319327;-3.50868137484;1.55898181871;-1.64722922778;3.0890856235;-1.74752343501;-2.56658333407;-0.514301952838;1.22142006903;1.54181990202;-1.51901031883;0.361519128843;0.26063603944;-2.85014194552;0.39663682815;0.715044713571;-0.0380993940294;0.491263913694;-0.758830465115;3.0318308809;1.04428304801;-3.55247926705;1.32690575872;0.352791250784;1.92602060901;-2.90932982769;0.180626793926;-0.186269892701;-0.975891315048;-1.47272805743;1.39838409494;0.00815193316958;-1.30950642189;1.51413524022;-0.0398042929269;-0.0451398985314;-1.6547227594;1.54247342752;0.479467986304;-0.877122844432;2.50584902624;0.878883960701;-1.57073954371;1.355621422;-0.528208369573;2.63357231024;2.60499116689;-0.447799829681;-2.46797206035;1.57944717906;1.93246484288;0.138134318759;-2.50453388145;1.28672188736;1.70970712003;-0.208295828693;-0.315568192176;-0.142430595606;-0.70177515391;-0.832771162501;-1.26918525647;-0.0497039711293;-2.50190108386;0.0970445969512;1.04120745981;-1.28736764602;-0.542233681742;3.25952076265;0.405084974083;0.214079964609;-2.66063456067;-0.279671935463;-0.409209846723;-1.38142270778;2.76782623973;1.83950771809;2.53467651169;0.117027780781;4.35889007874;-0.791473433548;-0.356141493163;-1.42427962935;-0.0848408923194;0.80445271602;0.696316904292;0.703804568012;-1.9983834956;1.98570876352;-1.65177450002;-0.303854247696;-2.6473669871;-1.40062428567;-1.31778621833;2.22750165583;-0.878717684183;0.333796353832;-0.557400664863;-0.385199483742;-1.41529706059;-3.524727157;0.22578436572;2.80872417642;2.12577575184;-1.72219418685;-2.0909339058;-3.42454135253;0.336134424138;-0.865075244607;-2.44379032627;2.58530192676;-1.49741360807;0.456909251814;-0.911274103386;-3.30128797534;2.68016036156;-0.806229217002;-3.23276042606;-0.173236024544;-3.02889292063;-0.503031273761;0.809277678955;0.890882208788;0.829807446324;-0.630036455172;-0.801980184867;-0.612190411033;0.823773670329;-2.86718094311;0.0854039418782;-0.252698166512;-0.683749858148;0.545144909024;0.432768472944;-0.154968180037;1.37143304638;1.65505258995;-2.56371261083;1.4512051488;1.39135244801;0.608454511979;0.613602790743;-1.09543284581;-0.213394588287;-1.52191905229;2.38309842759;1.45088679578;-1.65302198019;-0.186946975973;1.4525273428;0.919552589969;-0.410943047747;-2.74440499762;-2.05641441453;0.806846956295;2.06203680238;1.54950789191;-2.62720121318;1.60571773884;-2.14059779097;3.03078408786;3.87166491522;-0.726143537885;1.27126468131;1.8025156655;-0.70404834555;1.36503190588;-0.219435375627;2.90179043677;2.29244727907;0.602236266816;2.0984664122;0.0646487529041;-2.6772452662;2.16128071908;1.77658075947;1.81363256394;-1.92743804744;-0.817250281611;0.37400584752;-0.364748287874;1.33908230469;-2.01658559907;-2.51317565052;-0.622228111982;-2.28818616283;1.25510509361;-2.41526285632;0.876159315566;0.105364408375;2.39810014612;-2.54909713565;-0.292119221396;-2.22827588585;1.37683730296;0.874312771382;3.42367694418;-0.494744791175;-0.895905679704;-0.46324099913;-0.432195131669;0.910734831967;0.373384204114;-0.775303800885;0.142237111108;-0.933216986595;1.10505257734;-1.31594006099;3.00920988171;-1.74005036851;1.05184313795;2.39192292371;2.8925563855;3.48393487412;2.9852371099;-0.919035148943;-0.305198543725;-0.485442032135;0.319063263194;1.47951170435;1.2605314037;1.6850702857;1.84955083297;-0.180907714801;-1.77072780491;-0.845940373789;0.822613164751;0.155419032048;2.55197498244;1.00328059325;3.59293728826;-0.650144936424;2.42175689652;2.85862285132;1.06836515336;1.3036081362;-0.510306042116;-0.722289997021;1.77216065103;-0.521254626813;-1.22364477738;1.7291314234;0.63141625516;-0.481971747224;-0.957408544497;0.739911963375;1.75693669047;0.845312055373;-0.543947220892;0.430044481667;0.061268008726;1.13736505877;0.249413031028;-0.786761950003;-2.32086491085;0.63407390638;-2.09346672586;1.60447053272;-1.84608449618;0.253457810645;-0.247599309134;-0.370588321088;0.998139030853;-1.36988614412;-0.538579298835;1.33743940178;0.863815086048;-0.410021306667;2.42048752753;2.60227146001;-1.0759170173;-1.62359598501;0.456794352159;-1.84542159434;-0.0120573974823;2.76981363459;1.48852802998;-2.03248127206;-1.3420842234;-1.79738264626;-1.78590371011;-2.81769272817;-2.10253884299;-0.260607827471;-1.09781417082;3.42418045018;2.34702217265;2.20838232192;1.8980574888;-0.155682645301;0.502114583077;-0.149183993574;-0.0956309504304;-1.25185372962;2.09088314248;1.32382153035;-1.81325661408;0.826587287833;-0.499861949232;-2.55271156065;0.447704355831;0.572227398219;-1.22045146018;-0.228876933595;3.93525980514;2.61660561142;1.14287777807;0.134281822051;2.53384888117;0.498695920833;-2.26557693236;0.345648117472;0.746210691554;0.845197153992;-1.1152479555;0.0211107286487;-2.37256238017;0.806934011973;2.26957007143;0.869086778007;1.0530504148;2.12370611823;-2.9141520688;1.38651236405;2.36930334975;0.701155543969;1.48399260629;3.10879513978;-0.428679808564;0.757293454181;0.260412959522;-0.6897240215;-0.715495688332;3.17207477999;-2.38690086846;-0.855399352813;1.65017725044;1.39747033682;-1.37656225229;-1.51223080781;2.18593918056;0.869676595433;-0.991230951307;2.57208049347;-3.50819828173;-0.825993280366;1.9808196935;0.363108401838;1.68860284754;-2.34498591653;2.04699306406;2.34232510336;1.98251895023;0.607577542314;1.68860511522;-1.08160252825;0.519183463627;0.348049344209;0.186617361725;2.1581073309;-0.23379813478;0.199695200452;0.329987208513;-0.559346964848;-0.515369686135;1.07216742811;3.4223166449;0.262278791595;0.443494361344;2.13597208762;-0.857515132113;-2.02870891598;0.053490636652;-0.644939589385;0.329652903453;-1.12747083741;-0.360409878327;0.257744972812;-2.58484348878;-0.905791535205;0.641851162377;1.27048769151;-0.906694665177;0.506953387363;0.435164356743;1.29204614409;-0.84942408727;2.47261839662;-1.06249599673;1.05529001159;0.508360148883;-0.416123176779;-0.207069731381;-3.12406310874;-1.52352279189;1.69279229053;1.57653929626;-0.754760959106;-1.09602771845;-2.98395252512;-0.286860093627;-1.28255410697;-0.208777104676;1.69296558777;-3.29816393238;0.948129265225;-0.216987700193;1.92937962103;0.299831143931;2.44416497626;-0.984207497599;1.43986195251;-1.03717198236;1.84467534966;-0.464035831866;-0.500729604041;1.24886538699;0.643047663552;-0.32770200314;-0.552474690486;2.92184547618;-1.43488289625;2.34535418278;0.134656829361;1.39416656462;0.0663383065744;0.714268996698;-0.601329808285;2.64739967873;-2.55574326357;1.46995863644;-1.94621947568;-0.74487146993;1.00931197255;-1.21124707683;-1.42588463777;2.78480581383;-0.414354450491;-0.565175198943;-2.57870344652;1.34309121702;2.58936554845;0.168780540808;-1.21860714941;0.82949035385;0.518488153095;-1.07694141485;0.0469089682553;0.159903482116;-0.145083345824;-1.01182019114;0.722864988574;-0.0908822074676;-1.29697389874;-1.37077018994;-0.897003277878;-0.0796747383679;2.36571712157;0.801529687812;0.135667580906;-1.17943864519;0.635908073273;-3.39836220158;1.48874642899;1.73791594159;1.36842593023;0.643837358688;0.820432671446;1.5081817902;0.588610375593;1.36904047366;0.966356670761;-1.14245026472;-0.671537564963;-1.64473370357;-2.16220003702;-1.00348549117;0.0467200292203;-2.41303014801;1.30410677914;0.724051912899;-0.766437641471;0.0934823093844;4.09271445672;1.91961604949;2.00854003785;-1.25641301708;-1.99315124457;1.009289925;1.9160958518;-3.06286192103;-0.801661084505;1.12260270098;-1.31175343424;0.0568041055253;-2.78611798555;4.97227103162;2.56233584659;-1.5473177771;0.833246270036;1.25519212132;0.111422223598;2.19151692599;3.00109570445;-1.97892264092;-1.0792757575;3.18100956421;0.329008530871;0.977226494454;0.284963155001;0.506098707154;0.416101397035;-0.757078571798;-2.35709821382;-2.12181144661;1.83160683373;-1.58729157829;2.62951134588;3.01850442589;-1.95666559523;-0.379960518605;2.50164334145;2.35183813556;0.474802431966;-0.545995783582;0.722572974689;-0.429488660819;-0.111333283647;-1.14574477157;0.535303677268;2.41742036007;-1.80696595925;-1.63225626763;-0.0194290317059;0.132423806332;0.777339009087;1.37648090499;-0.0962928682632;-0.266211205128;-3.60984478713;1.35406481353;0.606033795036;2.08980553799;-1.04101238936;-2.95886692149;-0.347374661445;-1.82484578556;-0.216643373159;0.636292114291;0.889804904947;0.794333791261;1.60819278901;-2.23008162208;-0.575423337894;-2.9262704534;-0.0307904821636;2.36027307004;1.87536164578;0.708180376433;-1.88059621305;3.41436603645;-0.121083767756;2.36746811343;-0.332594345287;-0.329339798916;0.153267627724;-1.41606376606;2.16536471767;0.655629839156;-0.221674086002;-2.00920280096;-1.32578033364;1.47741081783;1.82508733925;-1.53558932978;-1.86432602644;0.154873031419;2.79289460808;1.27425733676;-1.08755714814;-0.241235679069;0.104522376464;-0.517485996274;-0.386125943474;0.315383097867;-1.46846758544;2.11469365802;1.10421811593;-0.0263382505218;-2.59908808015;-0.100639616643;1.93230466349;0.87645118015;-0.940043176118;1.36757900292;1.66987901969;1.82692097844;1.18849069249;0.705166757197;-0.290951340626;-3.70412798344;-0.932072407735;0.212205068545;-3.04874768115;0.827470763751;0.0566516041416;-2.77028050073;-0.952132540002;-0.194594424539;1.77901240498;1.14265630425;-0.743834410534;1.36733416797;-1.37640257471;-0.541829196558;-0.937970045098;-3.87374934938;1.44126643334;-0.755883703228;1.8112395417;-0.164007102706;2.72907466067;1.33311519827;0.766473351622;-1.58860784786;-0.399504137467;0.601817931945;0.572144564361;-0.0141404774582;-2.07942007851;-1.35046385453;-0.435617321404;1.91398285809;0.347630133538;-0.795569572549;-1.28036344857;1.05739149262;2.57344021254;1.94074551925;-1.38316987778;0.405329591643;0.0166720471028;1.11394155223;-2.885166704;1.95489381771;-0.0494318815271;0.106451349113;-2.07667554397;-2.14789993845;1.30341915844;1.41703307903;2.00517287359;1.94918864646;0.416764579812;0.590742499759;0.327421841784;-0.486361002666;-0.371423827151;-2.9061131125;1.53618853744;-0.790970582613;0.357596146455;1.66742921804;1.46894111652;2.5552440234;0.603381009663;-2.7409180171;-2.55098667564;-0.147760400641;1.20971257658;0.912917934394;-2.18799053892;-1.40370741753;1.67943754603;-1.56681796524;-0.814448772095;0.942410958581;0.930845140235;2.33528827504;1.55489462911;1.6532630989;-0.296201268762;1.8416358404;1.01508087963;-1.52697732847;0.90653785582;-2.33221966569;2.3507134857;0.117859380627;1.17229684677;1.3705252106;-0.30014622919;3.79646972619;0.206122187913;1.16141228572;1.88387590312;-1.73907934617;1.45218571407;0.305792656828;0.428739411924;-0.884896540476;-1.68329302993;-0.353277355097;1.64141248441;-0.765461209253;-1.50414390354;1.67363978058;2.94780393477;-0.137998221257;0.986089663582;-1.31441890601;-0.643510173482;-0.615657999599;0.18604514555;0.373372658297;-2.19379552583;0.942358846412;-0.593862515855;-3.03983499249;2.13636667895;0.551490967954;-0.588553422269;-1.12881780394;1.49552730025;-0.755814635117;0.347514056534;-1.90359373234;-2.65986976807;2.60447312684;-2.63177859463;-1.47597097427;0.271911331199;-0.944764624456;1.52666029396;-0.120139839476;1.44982602505;-1.27139014949;0.0581338614475;-0.576094544713;-0.155682380527;2.29525032812;2.2095339501;-0.100832958913;0.894431194504;2.02178213365;1.02639106464;-1.09251897286;-1.68474920722;0.87189105794;-0.396985027078;0.353019550269;0.538925613934;0.338934181194;-0.177860616115;1.35841146358;-0.87951371657;-0.388145197706;-1.05789569528;0.242492182897;-2.35425144634;-1.24142094803;-0.956748680596;-1.43520295357;-2.66916525127;0.571969695517;-0.899807316026;-1.09692951684;0.649236978282;1.7621084633;-2.08717005136;-0.357187810547;1.02751370933;-0.208254378483;0.980299552634;-1.83478959651;-0.628527317172;1.52460380042;-0.922503274001;-0.0213838905552;-1.02247671802;-0.671745994142;0.542068660507;1.24710901365;3.11492115332;1.20651430955;0.841372131744;2.6368238041;-2.93320233547;-1.23300319449;-1.99641018524;0.131904850961;3.10635399825;-0.569964308089;0.683040112557;3.4598123109;2.37810471756;-0.439627442844;-0.859154297782;2.61692644289;-0.314681154396;-0.835153856231;1.99340462839;2.66680602528;-2.58856981695;0.798505965549;-1.87933993634;0.397911240406;0.662468462865;-3.23716800105;-0.192150804747;1.9601715415;1.15641398469;-2.5244700661;-0.942539900821;0.704287401015;-1.62023684139;-1.09097128943;-0.629588001545;0.0548516942482;-0.336432759374;1.47144712473;1.86885611765;3.12058951422;3.99800590534;0.476292828125;0.404688749067;-0.55014048793;-0.428376674878;-0.470881959651;-0.708582825962;-3.89455048381;0.76073259559;-3.00726782074;0.74518664451;-0.716170355044;2.20761218315;-1.81054684564;-1.46028853262;0.841487825162;-0.899235607918;1.71464414812;0.388208896222;1.62660853349;1.49115727568;2.72904050625;-2.60781864341;-1.15223546619;-1.38408206855;-0.412938624139;0.956997010899;0.479137725546;-1.50158230579;-1.48017829703;2.03097066011;-0.903020938734;-1.0141262342;-0.0373273810101;0.494652973782;-0.018150043639;2.66222432914;-1.79468841563;0.192547869766;3.50106592809;-0.145949567745;1.46172491386;1.53788039297;-1.70586004768;2.31504026664;1.75136185423;-1.74858022839;-0.734612719039;-0.707347044259;-0.571828797848;-0.611524833884;1.61369767899;-0.734604359746;-3.24594955868;1.26001160859;1.24242020243;-2.30807129591;0.797229986519;-1.76611725427;1.28530474817;0.170760485469;1.41096063427;-0.628906109706;0.0540567863746;1.40685477294;0.507453099341;-1.30600333825;2.46200522731;-1.15122103209;0.678480457701;0.676635384199;-0.588804485023;0.170244508961;0.58399538373;3.31298920013;0.385968877096;-2.49236899166;-0.0738268237576;1.10940200216;-1.87472953011;0.742973217199;-1.08033034398;-0.72400457006;-3.22913907527;-0.326800505922;-0.700597452409;-1.12021942639;-0.714177747503;0.984400442098;-0.540777222918;0.69166330409;-0.431591244378;1.93678986848;-0.736930610249;3.06483470369;1.82970268593;-2.1354105561;-1.11115494152;-1.24715600807;-0.792383812513;0.184075896788;-1.02221014553;0.510630025832;-0.74815651781;-0.336327344226;3.22803126156;-0.00149041732313;-0.667492541837;-1.32556966167;-2.12824402302;-1.6932456828;-0.774743814879;-0.632793719841;-0.656691158958;-1.10964890532;-0.993085273829;-1.00135928736;1.35184435214;0.407630149012;-0.370251190351;2.99346420719;0.786991469055;-1.20751525661;0.00574435681245;0.502756353261;2.85663519316;2.48030453245;3.37850543847;2.75702246463;0.110999074037;-0.247332341728;-1.98107809791;3.30155519137;1.06084342198;2.19576963792;1.24098430623;0.575512079989;-4.4277501971;1.54349284608;0.563678838262;0.737953348878;0.413472713542;-0.178766309129;-1.47521920602;2.28748256961;2.85400684976;-1.59806257963;-0.90010196966;-0.342867194647;0.793129296794;1.28398422491;-0.752288101549;1.39742470161;0.242806733418;-0.416317828375;2.8911858782;-1.66902175379;1.33648784508;-0.047927303067;3.17679132685;0.252713130434;1.22585974734;-0.72667695059;2.01205788579;0.344633691745;-2.01903319869;1.85711753169;2.59773699858;-0.216698949449;-2.82065958723;2.02636929776;2.57457373449;-2.12911041245;2.83827433542;1.50791802759;-0.129362605337;0.931974498408;1.16198440758;1.64937462806;2.52342572811;-1.25648089392;2.426624596;-0.668555117639;2.67221017561;0.561397808736;-1.2745099864;0.0825912114148;2.90845876124;-2.20472084903;-1.46463920105;2.97848321012;2.74090753009;-1.43120868821;-0.727402480841;2.87989041539;1.37902363795;-2.51026627428;0.807258336553;0.664682726846;-1.42349405423;2.89925863639;2.87931538696;0.214556914042;-0.454088131267;0.248844517712;-1.10585484843;1.58681904878;-1.71218791639;1.96999290156;-0.227026095029;-0.813117474658;-0.69626421693;1.11422127829;0.322314409484;-2.18822172859;2.12072833869;0.435550809691;-2.41270957367;-1.64917920251;-0.981724595496;-0.513265844511;-0.818177594925;-0.607059968742;3.20852512736;-0.325135879533;-0.111598168064;-0.818868939651;-1.23983270128;4.48008841954;-1.79762273769;0.655505591105;2.78450977197;1.2694688512;0.295850419276;0.450727022834;2.55565231409;-1.18489545889;-0.395834266482;-0.0241597577101;-0.791441821437;-0.216305120089;2.61351535924;-2.26231985268;0.492917705045;-0.0674892127248;1.47250518587;1.09727004915;-0.539862083348;-1.48539868681;0.489850109901;-0.570600940219;2.59273446819;-2.53403149847;-4.26008174723;2.88817625214;-1.64868959439;1.89906822877;-1.75864310961;-1.91274356366;-2.62113083513;-1.9273693804;-0.0989540072722;0.431751521916;-2.60877933924;-1.60148235127;-0.0395070284542;1.86202892006;-0.292750273433;0.139352648518;1.66551006801;-0.389341056799;-3.6404024407;0.984720068333;2.30661540475;1.78335052698;-0.65804551768;-1.38217784935;0.0993155976314;2.42129644866;0.882802536177;0.339441562301;1.97820758873;-1.62931397296;-0.363153746534;0.232881056148;-2.2368701051;-2.95215026434;2.00110492502;3.00437306317;-0.123792144554;0.312311324507;-1.11741699948;0.338449491089;-1.53781024824;1.91804505356;0.0280875346291;-0.00994885998771;2.34065072087;0.997746603392;1.49280732812;2.03832108914;-2.77846545673;-0.78226680268;-0.491503547885;-1.38387027692;-0.979646168732;0.486668156278;-2.81250031268;1.25794869219;-1.40100320157;-2.8971803671;-2.09692544129;1.57723704875;0.89702948526;-1.14318706721;1.32003519959;-2.72188030529;-0.276226086549;0.241908979299;0.656179099967;-0.922965266153;0.959230234516;1.21741742298;0.59663777998;-0.680174860934;0.878467664809;-0.65373844881;-1.60875884114;-0.588389029742;-0.233468190736;-0.981814019276;2.28720241499;-1.00658059089;-3.93831392893;-0.369400504484;0.568512957063;0.271591991229;-2.07597414341;-0.342692484074;-3.55429075772;0.473965252826;-1.34157989089;1.869080106;0.419499881211;1.54861419602;0.732220377992;2.54020256427;-2.92494807882;-0.0296008064521;2.03287953985;1.84277476965;-1.7912167174;3.31903603275;-0.925900593092;1.58187498489;0.996145656591;-2.48631974813;0.92113824529;-1.61468079411;-3.90763842929;-3.02618888188;-1.54030872815;0.671168271158;1.41861692686;0.492775631045;-0.712037277386;-2.68620633477;-1.45780694829;1.46658803264;-0.17538033624;0.76028612238;2.93744618359;-0.627523771497;3.01502880702;1.33535886665;-2.15649847295;-1.65460408597;2.79396348933;-0.577429272196;-1.40586270001;-1.3548353656;-0.0621701777142;-1.8937969805;2.2410419737;0.26994090165;-1.68351154151;-1.97207617492;-1.61705763687;-0.69440970131;0.758503059261;1.84837168984;-0.162676727441;-1.57885929246;-1.15680468363;2.78668766723;0.44995716381;1.71378431049;1.36884595841;1.23033959398;2.08115757977;0.634712061989;-0.186878079534;-0.794935552381;-1.60520770825;-0.807382338787;-0.172991458797;2.92022423854;1.4819844825;-0.153656527296;3.8603878958;-1.34734308877;3.69403094304;1.01322618122;2.36733617736;4.07186469805;1.26165371893;-0.249229488345;2.75182114485;-0.11520103829;-0.924584507319;2.18531157551;0.840973805075;-0.479932672692;-0.905253501617;-0.6232167781;-1.17565357462;-1.3993515931;-3.10710605462;0.206872084977;-0.475946536785;1.20999705736;1.29167645913;-3.53522771412;-0.564011920376;-0.840924516852;-0.322372373069;1.20312256228;-1.5857754072;2.86122339179;1.50240923148;-3.13702828636;2.75201042037;-1.8158684027;-0.281662005921;-0.830993918688;-0.415165478426;0.689972705791;1.37097829637;1.01950975015;-0.274801738892;-1.55858915408;-0.048718365174;0.315219309067;2.28573471068;1.20845232347;1.21666939917;-1.64982368869;0.0242381144593;1.49858451439;2.10411565047;0.746117707256;2.28121275004;-2.32581261463;-1.55027566945;3.72832317191;0.232711633234;-0.419023017232;-0.565786907388;-0.0381756709034;-0.868070484991;1.74172079397;-0.633280181617;-0.588709732381;1.51525858171;0.657472463692;0.776574608715;-2.03779429972;1.87424774564;-1.39936837364;2.57420213476;-1.68142897429;1.41618923604;3.74051875804;0.260588331749;2.97214740854;-0.893644964753;0.447036515669;-0.050472385025;-3.47845735051;1.35602810812;1.1260427122;-2.09373117049;1.41562688258;-0.439228989467;-2.13484509327;-1.4058194138;-1.06206247633;0.248120506686;1.65595473911;-1.49629692731;2.35384486431;3.08021341435;-0.716879736624;-1.96623371245;0.647420349614;-2.79828115705;0.703254702787;0.199190758623;2.30857900769;-2.59670106815;-0.883304769866;1.25629836878;-1.26022535274;-0.541552474533;-1.14593320488;-1.65675428699;1.77398944859;1.01722575933;2.5808234296;0.836870301713;0.00353351289817;-0.984227268967;0.239361533017;0.630314331015;-0.696478270692;-0.394642595487;-0.0523695192924;0.531772583294;-0.138387319034;-1.26788258618;-0.0894066134716;-0.145501537211;0.896893320256;-1.32965477121;-1.21347746903;-1.63107927404;0.234433939503;-0.651869559617;2.5261619695;0.882231653688;1.22534313284;1.71227852213;0.750133752686;1.36475492804;-1.13395233956;0.651193268255;0.51497341618;-0.410301275516;2.0020058723;-0.166003796233;-2.80363826904;0.640765930767;1.25522280314;-1.16352141258;-2.24925682868;-0.0624218304301;-2.34138480748;2.11949536027;-2.25077753169;-0.936501053034;2.05154343244;3.04392821964;0.0705944956624;-0.484304860479;-0.766620673194;-1.17109184538;1.48686901896;-2.63971751272;3.30112355352;2.19033135384;-0.83368655322;0.505387544228;-3.4570951144;-1.1750708458;-1.90191245306;1.5383100579;-2.85776388536;-1.68748417556;-0.721193494535;0.338806477897;0.921876383846;2.9869064566;-2.10394559838;0.789564258111;0.0147508053197;0.345086637128;-1.17686500326;-1.82563856903;-2.97597183181;-0.362470340357;2.3926357812;-2.67371405869;3.06272402745;-0.099678600675;-0.982771453022;1.71825415665;-0.57713251084;-2.14785133493;0.444289705682;-1.19575937056;0.00165096381717;2.09892042704;1.71987014077;1.66214234767;-1.07006640253;0.376660584695;-1.7403697699;-1.28303125474;-1.53057918574;-1.42258505938;-2.76358879862;-3.81358080495;0.836467360922;0.859215687806;3.12174380703;0.526357534191;-2.07374058146;1.09148279801;-0.530281754627;-2.60015057647;0.0378584717439;1.73922729544;0.530566090638;-0.560851249668;-0.175459274485;-0.682146108905;1.93786403507;-4.19946409052;-1.60895099616;2.18822449037;1.13620856942;-0.207799973994;2.97794761913;0.0376264929613;-0.59472808872;1.42910799834;-0.285298978874;-1.09205635956;-2.58398873983;2.81093201998;-1.14881340419;-3.32524980945;-0.525735133975;0.58519386291;1.69568164711;2.05588557917;-2.32828149052;1.81471621761;0.200461202962;1.54598830901;1.76677029764;-0.417099756287;-0.537017220766;0.948557556123;-0.504064925218;-2.16839094774;-0.384641177044;-0.107950331127;-0.383292694878;2.88914886359;-1.92566244086;0.860100005565;-0.284588563429;-0.972017997857;-0.248302433997;0.423770673626;0.138203012592;-0.418553706689;2.84080170482;-0.0022039010334;-2.2515101665;-2.96250378037;2.07436172047;0.49116479734;-1.89020188266;0.775672403474;2.41572110101;-1.2711279139;-1.7677756361;2.37677191515;0.33775109671;0.00657434913173;1.06818979694;-0.0926729126506;1.27852032765;1.20810124219;-2.19970433694;2.71439527695;-1.85452946721;-0.0372983034818;0.554817265951;2.37090928748;1.3763343736;-1.53045054558;1.54613287521;-0.391994733788;-0.747846071074;-0.313436648577;1.57800492348;1.69502849768;1.97311030353;-0.280306432464;2.13077407598;-0.431240860605;-0.737139993384;1.52390124133;-0.431083780305;1.23732421505;0.0990563483527;-0.550527514316;-0.977837105378;2.26429581087;-2.10674271521;-2.50712400245;-3.24276434635;-1.75526781184;1.1296366881;1.69720946626;1.31518684528;1.62785719605;1.12712188154;-0.683419166508;-0.898064164816;1.73545408483;-0.0745290130002;0.471659210178;0.729406914165;1.66744018437;-0.168651193029;-1.0814067978;2.44819721873;-2.39826569975;-0.342298495405;-0.893302953223;1.34651980799;1.32106061556;2.5051363885;-2.23648194902;-1.39551648055;0.560409076945;1.41908967605;0.327355588406;-2.07216538898;-0.677530819455;0.598130343832;-1.48936440897;0.697981991212;1.46270792942;-0.848990568978;2.15021877648;-2.33183182428;-0.37038498991;-1.22912338556;-0.634113943772;-0.0251889441183;0.420892592835;1.29442677201;-0.0663945762824;0.287728196186;1.71539358342;2.22780151808;-0.994240106788;-0.574205135494;-2.08507859796;-1.87683842782;-0.826414204969;-3.32521737218;-2.41368657973;0.326070531295;0.169926164803
-0.868577943978;1.34578287798;0.440549595434;1.62683895851;-0.244937310718;2.28438501673;-1.76413965493;3.22086594103;0.330874709819;-1.50547447823;1.52354213031;0.194338979303;-0.717204792327;0.663423092227;1.55045440576;-1.26994207279;3.91441521322;-0.00286555591494;-0.478479240641;0.312826638616;1.83409428619;0.162411915656;-1.477558188;1.38235280739;0.521095997736;2.29542688473;-2.40198465294;1.75630006992;-2.33675879594;0.504742168976;1.211475332;-0.467601345488;-1.5474722117;0.867961897713;-1.76476635187;2.67671560745;0.0385541637807;0.591138315303;-0.164637455741;-0.931091727072;1.09334941635;-2.06046897157;0.390030606221;0.514273734256;-2.65122169536;-0.888654546044;1.10917275328;1.2072934037;-1.97853735046;-4.40761062124;0.811278314692;-1.06763727505;0.222066614001;-0.910136444654;0.404464728178;-2.26356591311;1.95213501929;-0.351987425489;-0.231610118012;1.61671471498;1.00078154093;-0.00888255889327;-1.81177199929;0.622453289728;-0.725430375783;-0.184505737635;-0.937134976055;0.485335133328;1.62003398306;1.83028617367;-0.657399719061;0.273751203022;-2.89474356995;1.63394933899;0.192200071573;0.643696360874;-0.314197389155;-4.10427363037;-3.17334408614;-0.549934945919;-0.801052541181;-1.78362803455;1.64038504195;1.65930497963;-0.508892922469;1.73628986765;0.762717152404;-0.181584694665;1.13919130027;1.94088542165;0.957731308239;-0.401617815588;-0.910168781355;1.55009787401;-0.811621249518;-1.44387732156;-1.11578982;-0.578843614589;-1.86852259441;-0.0798796654114;-1.05750825899;-0.994852218514;1.36856631701;-1.23020492384;-1.12680547347;2.37025326552;-0.690352907021;3.63359949117;1.66420538243;-2.02593087661;2.73545196548;-4.04909386059;-1.74178385468;1.20892088873;-1.35383912131;-0.692735879044;-1.61574869453;-0.0835339529097;0.167061990624;0.24032073246;1.37121825567;-1.61732505236;-1.24613124007;-0.509747763409;-2.86693547182;0.070474925723;-0.468815552883;1.32748304513;0.483461620396;1.41417832661;0.343502599812;0.198565117322;-1.97368665287;1.33236549816;1.83457187591;-0.685389747269;1.04232109863;1.06156722308;-2.86904046018;1.08246348518;-0.145286043823;-1.18053943681;1.81145965621;-1.31887105468;-0.408778052493;2.28594084967;1.88894626948;-1.11126167273;0.685523065916;2.43216129944;1.11615300895;0.823627332701;2.50076424157;0.670795332132;-0.106419307306;2.27437835136;-1.83557741507;-0.610700778602;0.950936111531;0.251684710853;0.780422394285;1.25670734582;-1.73317490534;1.07552069573;-2.28564542874;2.45947103886;-2.14480574038;-3.01846699115;-0.298973288158;-2.11227486537;-0.273112466835;-0.456500057883;-2.8660716299;0.267420495932;-0.979581654018;-0.737112907018;-1.68187797329;3.58755454722;-0.625478416694;1.7858617266;1.44088044741;-2.2759333163;0.0655054081872;-0.518046088178;-0.492122804271;1.33317428342;-0.344405548787;-1.08831080015;1.0512820237;2.14395529511;-0.0303352855967;-0.192580077217;1.37073570141;0.600967483238;0.0643662641405;1.0511574427;-3.01962579754;-1.63470160101;-3.07618429901;0.90458578965;1.03275370366;-2.44845886437;1.20362752323;1.91278054452;0.752842951669;-0.866271788538;-0.827104262083;-0.0328212397994;2.33106764176;0.204245440963;0.901975067267;2.70539514161;-0.505488717342;-0.452539859994;-0.913504484983;0.106346967432;4.07175925334;0.490972456307;1.03704686345;-1.05998648391;0.97526991976;-0.949127020226;1.99773619281;-0.0381145911352;-0.326599528237;-0.0367613395931;-0.102165655835;-3.81300828459;-1.49539389797;1.9707558376;-0.873406242001;-0.0443940128182;0.861504699534;-0.0115159192726;-2.45218310961;-3.05120928642;2.32935098772;0.775025788809;1.63214255535;1.43144914405;-1.9137708482;-1.86276009815;-0.0786715478241;1.10176913684;-1.41023083756;-1.03602810081;0.835467721241;2.07939359313;0.29073880866;0.756135150676;1.35599775274;-0.327234506616;-0.826476469343;-1.65494702049;-2.85731866863;-1.00739258762;1.68524937811;2.56893489325;0.510907445966;-0.21525427504;-0.632353610368;-1.75235688076;-1.42576175159;3.03264170117;-0.124371931165;-1.83112494453;0.606724677645;0.577998152485;1.04973068174;0.234205206521;-0.550220257842;-0.537555420688;2.32707219768;-0.416919103763;0.284930071126;3.20681261871;0.115371389892;-0.430152618138;1.49943421576;0.455769838969;-3.31740488214;-0.433003290892;2.22045536955;-1.76940261054;0.554418106627;1.70689085858;-2.76037402483;0.814269972773;-1.34181994518;1.55670162684;-0.686039098529;-1.40535759769;-1.33088111711;-2.97338483207;0.802770608091;-3.00428724045;-2.43207729176;0.3420754047;1.51262139906;1.6981859438;-2.60346028652;0.070880468179;1.23195745978;0.387556711204;0.753908415665;-0.275137883295;0.671237347394;0.455685554158;0.73293372785;-0.630257892645;-0.420478415516;-1.19657874791;-0.31212251148;-1.62453754007;1.27200203614;0.82108041506;2.53838694871;-2.4929264199;-0.199510428355;0.704922122948;0.631618946463;0.125281253542;-0.748277732669;-0.247989431184;2.56780101447;-0.342238155657;-0.313526513448;2.78123691777;-1.79724505862;2.47503494216;-0.154438218743;-0.797333135834;1.59560869405;-2.57573900646;-1.70939476714;-0.0570957709451;-2.47120904649;-0.822518154587;-0.818841855388;2.60255299515;-3.0445097393;-2.64039920822;0.324607457395;0.6044994448;2.39204971423;2.52181728387;-1.57574138788;-1.03915282842;-1.18115487049;1.75154049996;-0.799023438283;-2.07308137186;2.10957296826;0.882933036905;2.41111576584;-0.393351893279;-1.53939650673;-2.27119426414;2.80070990424;-0.0323842477519;-2.6744608794;-1.30661879866;2.69985952499;0.996137799965;0.710940950798;-0.257902258625;0.998406802463;0.859785362269;0.832493546214;1.1751739925;-1.4642269035;2.28572392406;-2.81453174452;-1.67856799712;-0.64281308356;-3.78846386955;2.01932475737;0.569976696435;-0.503445188965;0.481546360147;-0.397165154864;0.726311546082;0.394167316601;-0.710065606186;1.73018456305;2.2865037801;0.365038402816;0.754832089515;-0.982530095343;0.567729094612;-1.78676446346;-0.636159388532;0.0641265960738;-0.0541959437625;-1.23789659882;3.85637933147;1.35201182938;1.14157310369;2.36127440779;-1.42910356784;1.55682868509;1.08448595082;0.603171290893;2.75607661069;-1.06793220551;-2.00712018421;1.04221973419;0.0234587517832;-1.89628525788;-1.40012512568;3.26778960924;2.05156178187;-1.85724827278;-1.28555037409;1.02041495088;-1.05818458937;-0.526019494382;0.41489446198;0.348171590304;0.681211152753;0.185832127251;-0.32813205785;1.49068358017;-1.33011494573;0.832835099953;0.0833190229532;0.0625371753114;-2.02253442574;1.99203244524;-2.68751036977;1.14682069748;0.587061588605;1.9702708165;-4.67807356992;-0.123658767439;1.51679669974;1.95402522372;-2.15328102879;1.73520429662;-1.25871352693;-0.665722860829;2.60275352568;-0.892244708433;0.951051599578;2.37000924083;1.96549295257;-2.17571561544;-1.50055142962;-2.30583309373;0.666360204007;0.485472307483;-3.29545578294;-0.203657570813;0.810738800855;-1.0815923415;-2.7369210591;-1.88640374619;-1.508671289;-0.491232580202;-0.254746711478;-0.194339954818;0.374405632725;-2.82918572581;-2.98424123175;1.28300065129;-0.0961423471473;0.374668456748;-0.14566770673;-0.12917585428;-0.188099690873;-0.0726117252996;-3.06577160711;-1.64567208471;-0.0413502274874;-0.407751956537;-0.413332870159;-1.18650571303;-2.49839345492;0.0589886259895;2.38026467046;-0.332488897143;0.61562439222;0.415657975724;-2.52146179211;-0.763733803415;0.0852804473818;-3.38732533393;-0.476707323668;-0.366045668256;-0.23945158918;-1.3259294038;-0.331383609618;0.474851549832;0.359022629068;1.14932818952;2.13738158965;-1.97158929254;0.0785912162726;-0.586965317804;0.793349955563;0.67055822985;-2.23612229612;-0.68599824746;-0.976117219717;0.806774764898;-0.357062090202;-2.05594586144;2.77255987522;0.804389727802;1.32716422352;1.63083228044;-2.11307477091;0.303458177954;-1.35830249561;-0.231792238318;-2.64063039829;-1.22927661602;2.20553396409;-0.00654889722169;3.91050967442;-1.49261855939;0.168021674992;1.46068912783;-0.305070751544;-1.50348820854;2.22016083783;-3.06794551083;0.938076290411;1.69273041701;-1.06644337833;-1.79071125871;1.90512978627;0.993881098598;0.288364622659;2.39696561862;0.79632501234;-1.12931374109;1.92268610189;0.441622255644;0.194964719893;3.28930798527;0.524139023708;-0.281515635494;-1.43606519718;-1.18553547195;1.87373341498;0.317807881807;-1.03805262642;-2.23593196261;-2.06224984544;1.78933471261;-2.36391157994;0.0273418220105;0.541045017498;-1.78796652565;-0.760422520263;4.30504573918;-1.11898192383;3.45605200249;-2.43016307317;2.18967608544;-4.01733514329;2.59568231357;-1.60003168699;0.752370225082;-1.86650358131;-2.58224874827;-1.15530896581;-0.500005518041;-1.14840596249;-0.862682468751;1.99440750188;-3.84410810597;2.55602888583;-0.538986134435;0.214415353542;0.545519829461;0.0501336780254;-0.915533133215;-1.2419155428;2.17233126012;1.31767837949;1.33602789099;0.0683121211968;-0.792513106935;2.38855510269;-2.15424053646;3.28866039001;0.881703625121;0.547348912691;-2.19754695425;1.54296901105;0.842284386399;1.51595906707;2.1931093116;2.88294672721;2.99141364404;2.02281687881;1.69753392513;2.06669707675;3.6023158403;-1.26357823811;0.883844845866;-0.0605708349714;-1.30683820427;-1.59677308211;-2.82065386;-1.78610818425;-0.422126636815;-0.712304733798;-0.866918279212;-1.38677327483;-3.53941423663;-3.11969916104;1.24215296782;1.61699957122;0.0477412894998;-0.581506467242;-0.186555911682;-0.386580587219;-3.47111804233;1.8824078304;2.59218684181;3.11301807613;3.28207673974;-2.09546320276;0.269707338959;1.04025995475;-0.182615126844;1.73099085884;0.880928214519;-1.8296464833;-1.84783889261;2.95926746616;-2.61138641501;-0.346644582791;0.745432015226;0.140074677497;-1.48047557167;0.633980245819;-1.31058701284;-0.150370197521;-0.222561434632;-0.453954437109;-0.0754897488318;-1.16536247495;-0.909997451387;1.6275535372;-2.38636337032;1.86205189219;-0.8088697521;-1.75775430217;-0.100129535819;-3.62023218031;-1.51254791058;0.917606065466;2.87491745895;-1.13916303717;0.213704074657;-0.0625816693223;0.175630411596;0.319890860545;1.58801132186;3.086824606;2.95192586859;0.225003995705;1.7449194412;1.61265293959;0.17137324866;2.27218085792;-2.84537518081;0.259796729394;-3.50383037222;-2.1903319428;2.62754904973;1.55895857692;0.167466999644;0.717358064038;-0.872082831767;-1.19973180423;-0.708895524254;0.8855079742;-1.26870575639;2.07218195104;-1.6410421399;-0.9789862507;1.11492427183;-3.24727283678;0.542561520301;0.102681150686;0.637226442072;0.707157465156;-0.0753975861176;-0.519531595654;-2.65226476941;0.846379714245;0.790235798675;-0.595322124882;-3.33787519332;-0.20000372449;-0.588601126651;-0.91204873191;0.979251347343;-0.943675061937;1.10741109485;1.32308143885;1.01999564326;-0.395062701465;1.09441380575;1.19447211693;-2.33019176186;0.829006027243;-1.51434271154;-0.380679461062;1.51265850246;-4.49554067779;1.44520938627;-0.610880809635;0.899379765461;-1.45527634069;0.992758022922;1.91744665425;1.67851829402;-2.19722381718;0.837929232815;-0.36106771546;1.91952003478;-0.924735438923;-0.800146484858;2.02144292413;2.12831076537;-0.312008793482;-3.09659235614;-1.40978666882;0.71350291232;0.630701016879;1.64763813457;-1.25441753109;-0.394269315513;-2.171470954;1.50252683177;-0.435690024668;1.82338285375;0.636677472696;0.856669807827;1.695602497;-0.917341524816;-1.86332479527;1.78156608824;0.00338343707039;3.31299010135;-2.75244393561;1.21533053525;-0.430214565971;-0.687273168159;-0.288904271382;-0.801995909641;-0.490323483888;1.43237444529;0.739845299072;0.535271659989;-0.692652889802;1.14934629079;0.882688559572;-2.19683107995;0.586502306004;1.9360421464;-1.53372012916;-1.81945395921;3.10537290077;-1.10662629218;0.820831086528;0.847444261906;0.431005513934;-0.371998118955;2.14962035965;1.62311543262;1.29742918932;1.35024065805;-0.143316560835;1.80068947309;-0.409965263849;-0.511141057647;-1.56529807613;-0.398382649589;-0.548274795113;0.921099440084;-0.176331882544;-2.78233501388;-1.61139249528;-0.111538050165;-1.10004107071;-0.251310952923;1.67789518921;-1.684241095;0.707218474807;2.51631518137;-0.110663724188;-1.10239450231;-0.430100325429;-0.657123302281;0.164441612978;3.02608734789;2.5153706399;-1.3994009888;1.62038493226;1.14053733403;-2.29702024683;0.942088022515;3.390584152;-0.680018520631;1.39878080091;-1.30380095211;0.0257233262995;-2.04678881893;0.691391523473;1.32052542581;1.29537600476;0.963059196489;-0.37456040032;2.02485539753;1.00475421534;2.99232251819;0.570174753056;0.864413910076;0.132643852735;-0.218404126731;-0.0400823084501;1.97583904511;-0.909265787874;1.43120786162;-1.0702814968;-3.11629706484;-0.0369370652974;0.237338921644;1.0980035652;3.11773828688;-0.177355398534;2.90336856345;-1.0623781134;-1.70237004452;-0.656668791724;1.84147585631;-0.499370636341;-1.50233913526;0.400262412695;-0.473112961931;-0.686531875326;0.84994223005;-2.40739602126;-1.16634982266;0.129837978867;1.07037280255;-1.4680171437;-0.84523321429;-2.43742042909;-1.97755251781;0.913250627127;-1.35441368656;-2.09742889666;-1.95885413589;-3.52727737025;0.898882369589;0.178177773678;-0.833797152571;0.431862254318;-1.55457703722;-3.24527472116;-0.380436791206;-1.9195178507;-2.69849924426;2.78591465225;-0.185920420695;-0.810264029357;-1.25082459304;0.931319859986;-0.805091188133;-0.209300980371;-0.236491486739;-2.15953441295;-1.74384269724;-0.267306749363;-0.541792998135;-2.29711864619;-2.07761004633;-2.74615779219;-0.524644254008;-0.535546333162;-2.17591207962;3.1119033991;-0.691534077056;-1.71341650097;-1.08364150568;-2.20137410587;1.6401014591;-1.34348997032;-0.387559540141;-1.53686557637;-2.48795363083;-1.21191503235;-0.664435794261;-0.911421740048;0.378775939506;2.23601850257;-0.251484336771;-0.657893063085;0.242041225305;2.30262534185;0.336877660109;-0.476310986753;2.55714533877;0.351285334693;1.20096940166;2.84809286794;-1.13365715581;3.54364670622;-1.66170112886;3.91068669798;0.202475266094;-3.68842302867;-1.39558826272;-3.54255270287;-0.688926287053;-1.12031356686;-0.278143900426;-0.537448099344;0.0574055406967;2.35553742627;-0.238895764837;0.167013225441;-0.58582742917;1.89953639442;1.60271072237;0.550054364912;-1.85771242215;1.22723609139;0.983416428647;1.8080684722;-1.23665663497;-0.402086135643;-0.653753658757;-1.57255358142;-1.31173545998;-0.969279853463;-2.09811601637;-2.52538177443;-2.04979312961;-0.0256061535316;-1.09189177762;1.05205743413;0.705541818892;1.6742385773;0.561566561694;-0.0868268300413;-2.63163564964;-3.42865873659;-2.169972059;-1.25026451863;0.555918194552;1.18860367336;1.31055702318;-1.61279869729;0.139215040859;-1.77494956748;1.28540953856;-1.392473001;-2.12539527347;-0.489059467232;-0.200806293816;-1.46983180309;-2.25320676838;-0.613221100751;2.15618411549;-3.74144021469;-0.718118287664;-1.30717026345;0.79797297918;1.5506828032;-1.02841779461;-0.247954999761;0.771924349129;0.455479540994;-0.72109666889;1.97914045558;-1.20852638976;-0.945065388502;-0.992424012805;1.29310037816;1.06206530365;0.234404832496;0.386603556253;1.54860630521;-1.54559068111;-1.59878014667;-2.62095243947;0.174679349335;3.17846839583;1.9234076921;-2.22764242537;-2.49153920178;0.372100221243;0.0324536568942;1.93766549621;2.38812440801;2.85254618518;-0.179701591969;1.57079668807;-0.137367919294;0.621785303162;2.55243736002;-0.938361902295;0.617942282972;0.36444418171;0.229041545631;1.94102883506;-1.99396294195;-0.500491383091;2.30488663081;-0.959421667062;-2.39862642005;-2.35502034016;3.49255819412;0.806819022944;-0.490446370261;0.619944802558;2.17195799696;-0.845881675653;3.49081605213;-0.880739389697;-1.98980398161;-2.65221405928;0.752621053309;1.12182322281;-1.57810497651;-0.572174596323;-0.161181899257;-0.0519739844685;-1.75721418231;-1.6029339616;0.652068174454;2.66500379233;1.77462446292;1.08931665138;1.72200584202;-0.539034045411;-2.96211993824;-1.46308063898;-0.967397681089;-1.52782058968;0.0738700692904;-0.822865334358;-1.51698415862;0.578266516995;-0.678138057525;-2.4264586886;-1.04110719483;0.210016594973;-2.60277156713;-0.584076132625;-1.32887925956;0.136187201887;-0.540490010929;-1.19263526634;0.704045059491;2.04071028589;1.58319512813;-1.75580338624;-1.03223835032;-1.77604210365;1.92782690327;1.23210901678;0.835490794959;-1.33127366903;-0.390068930175;1.77522446702;0.223801268224;-0.126057494331;0.723266240029;1.52975854222;-0.913402031857;-3.50964622754;-0.0136693046654;2.51963536875;-0.892082979601;1.88150994406;-0.239307640895;1.28193061013;2.05890765526;1.20703320845;-0.764348788817;-0.392254462269;-0.492053167095;0.655817012354;1.81246354779;-1.84924886244;3.27874753513;0.926988063199;1.47938697821;-0.565007966657;-0.857071425365;1.02374773594;-1.48246977007;-3.50548222697;-1.04482839048;-2.11828066251;2.03931776845;-2.73857468173;1.16312041751;-1.90031542949;2.01868592446;2.10055249591;-1.43894497541;-0.150935015795;-0.880758022272;-0.188589616812;-2.44171415218;2.2076732667;1.05449359109;0.285323583288;-0.0571774808104;1.73395299349;-3.75467093307;0.408458508411;-1.41250859523;2.10721460791;1.70747559993;-0.602643545892;-1.75025064826;-0.842679888262;2.55348947012;-0.212132230578;0.298814137095;2.4179633369;2.40349349393;0.255817930818;3.09865833394;0.434563581041;-0.228441339719;0.447995440422;-2.02006448714;0.0891089650005;1.16458690212;-0.557439364969;0.981106143698;-1.23405617844;-0.677327487961;1.08191532756;-0.168191125964;0.418912400717;0.0401611856099;2.17031518233;-1.57271377798;-0.261763500175;0.63925360687;1.64197690248;0.876439238351;-1.71270901272;-0.384466801696;-1.5289043562;-0.990238669544;1.92414389551;-1.83261171743;-0.292218550632;-2.06684144067;-0.237271487481;0.442720157362;-2.77083942745;1.40447948138;2.00541208325;-0.611958186892;-0.286071928447;0.0086649584513;-1.64469550874;-0.937163549176;-0.089492668036;0.673616291461;1.74214618192;-1.12452777949;-0.0368918794404;-1.71380260849;-0.878838374069;1.55267653893;-0.732149110401;0.260556731482;-0.643481133243;0.952565483858;-0.304837122258;-0.0582846045955;3.14390600234;-0.323591030054;1.91126304482;-1.17563695495;-1.97756950408;4.28324390338;3.22998264498;-2.38462822286;-0.856846522829;-3.01757882503;-0.597598906727;-2.52348187479;-0.490720991434;1.84361146647;1.69403111934;1.2750038475;0.11629354312;-0.561488338572;-1.38511747851;-0.961668289737;0.156613292698;-2.18463308548;-0.16559092085;-1.50021395404;0.342663752214;-1.59498080984;-2.34132280664;-1.36575622996;2.14658537467;0.667384602041;-0.401190832007;2.51518641443;-1.8758289787;0.275726098282;0.0925793413176;-0.239600889851;-2.05011747297;-0.0523875231392;-1.67875967023;-0.901748819114;1.85275882836;-1.4195865365;0.251019796258;-0.333814610169;-1.02321919262;1.44118721986;-1.83887560096;0.721736627636;-1.25056226866;2.26088297232;0.343040861976;-1.32016859564;-2.29376797249;-3.00022548554;1.82857238357;0.365505695018;1.69617505353;1.08587940792;-3.48374318759;-0.889037510363;0.890862394188;-0.8362122428;0.0744645985764;0.270855885474;-3.24385635346;0.0176778632062;0.0739547097287;-1.25100442805;1.97708230305;-2.74808022507;-0.172624054698;0.135442997115;-0.981672391698;-0.706739683586;-3.11379333669;-1.21152923474;-0.0142930192319;0.848272814289;2.40024867901;1.60210803411;1.90541963852;0.391695711247;-3.04652241589;-1.58086636247;2.95239583271;-2.8787716755;-2.47540488167;-2.13244885388;-1.49239998094;-1.95595844967;0.912033306105;-2.49045543584;0.972507455623;0.389770888889;-0.435039304062;-0.840803138823;0.696313000657;-0.45708359285;-2.3322667958;-2.33561743859;-0.758280484874;-2.13836541717;0.28532777422;0.227116804547;0.232331908165;-1.73903964865;1.86356609431;-1.207663771;2.69208036294;0.605762824352;-1.43361082398;-0.326281551107;-0.0249062356994;-1.30634233045;-1.15485861044;-1.52513506536;-1.44358314773;-1.60804145015;1.75836130501;0.3674635739;-1.59971763356;2.37855967851;-1.62734029957;1.36917264336;2.08649835561;-1.79706475491;-0.65290513697;0.0426052774652;-0.972577065633;-1.50071222888;-1.31619360737;-0.282298964513;1.5708332642;2.15760240229;1.45164167618;0.489161007091;2.75281245588;-0.458091682596;-1.46946049756;-1.40666899351;-1.53181920827;-1.64650792451;-1.18191103811;1.94533651408;-0.255272769669;2.00900113897;-1.78134051809;-2.0844572623;0.110479566809;-2.33512297151;1.54623933293;0.300887429134;-0.339712202669;0.296785339398;0.326055086524;-1.56863105931;-1.82337116669;2.53819639303;1.36806420103;-0.28433765739;-0.531405762049;-1.05905388946;0.390023020122;-0.061759230267;0.802722611251;-1.44814045336;-1.80847590591;1.82249449072;0.863503622627;-0.452869542778;-1.60215562015;0.819856225135;-1.04050050709;-0.112339984624;-0.84075156801;-1.0922565689;-1.08866984113;1.74010752579;-0.935573714412;1.57517625921;-0.678633298769;0.1174133798;-2.45364396349;-2.17284401843;0.872810314443;1.14588806976;-0.389392577429;-3.15621229429;0.121283399335;-2.01617560341;-1.12250581085;-3.02287471406;-2.11375194918;0.65477529017;-2.44504379734;-0.203466513465;-0.271487480815;0.463926992196;2.3519950173;0.718487089756;-1.97849133059;0.813797746489;0.468354355208;-0.986154354416;0.10629762252;-1.35632901519;-0.190597253172;0.108407784692;1.95320562673;1.75701084615;-0.206727506702;2.22775223506;1.09209281462;0.11772125993;-2.19023652488;-0.978299390926;-2.04478290425;-1.12631351802;0.704731910431;-1.72926816157;1.48391493068;-1.57418512188;-0.456437014077;-2.32037242093;-2.60039449362;0.159001557368;-1.37383806492;-3.22945860182;1.22237926016;1.71777096408;1.82073709238;-0.010421799165;0.649505346671;-0.321425028536;1.19285452508;1.22250884066;0.701623344792;-2.03283401971;0.578169875909;-0.0398628277323;1.43251542485;1.44137573307;-2.26073047892;1.02582230201;0.876740679351;1.52712525889;-0.476781282983;-1.58551933439;0.376318996831;3.05023753175;0.860877062355;-0.143365070333;0.702161624965;0.0828944420641;-3.34728806972;-2.05415444332;-2.38901033262;-1.30409114596;-1.62268617472;-1.92904528346;3.89387095962;0.0645084593489;0.121019661018;0.457827284987;0.154924278496;0.498024941538;0.220253851125;1.67061931496;-0.636688501299;0.626974134062;1.63734780045;1.68421828495;-1.81882408663;1.00339490521;3.0851161581;2.04743908813;-1.15167657942;2.30889255928;0.379366900651;2.28980617956;0.121737715237;0.658578203017;-1.31174858264;-0.966298623389;-0.390459335169;-2.49063601496;-0.106923567999;-1.52859461908;-2.08774788627;-3.89075130801;-0.166806664484;-0.826456954385;-2.93417947012;-0.770671057461;-2.60932825125;-0.164553697886;4.36957794598;0.464253111647;-0.696445077481;-1.03953781728;1.07595945081;-1.40250197622;-1.43026821621;0.946491766934;0.906820457027;0.133625641564;-1.10477618371;-1.3396527952;0.197775622497;0.549514466535;-1.24623300734;-2.18114580123;0.10686363103;1.03332027309;1.43219819392;-2.47427016112;-2.02014724928;2.6681606572;2.65258148166;3.45794172077;1.77349079194;2.27378134222;0.620012035524;1.9101715267;1.03793076841;0.341624504615;1.79384853054;0.0770316704581;0.548962763645;0.474746276691;0.611769332649;0.246172804535;1.67146577586;0.941043251465;1.27991408207;-1.2413272327;-1.14668521846;-1.89834087765;-0.119626121789;0.589680066836;3.92424043272;2.16488332323;0.21947154585;-1.64525290057;1.68611867551;2.0648257808;0.834267061731;1.42845487983;0.209253281672;-0.857304518071;0.977507924723;-1.38769800619;-1.78216750372;0.702714165103;-0.462840626451;-0.729535019037;0.227291042965;-0.39207095167;1.48772124353;-2.12208520676;-2.00250238274;2.030995538;0.238765501758;-0.681735490521;2.39687536297;-0.923875005227;-0.252664010702;3.91601836147;1.71391508362;0.650105319518;2.59332379619;0.0836242555491;0.482962738937;2.93741597355;-2.51886570302;0.402653001662;-1.5664414948;1.69411147311;0.606514903028;2.16450458364;-0.731365598022;-1.63242808811;3.01403810771;-0.153409181856;-0.488464691996;-2.15305174684;-1.85816829044;-2.20934173598;1.21671043865;0.379085290963;1.2188857516;1.80518983446;0.170039799483;-0.246039326728;1.04989444647;0.366132669624;0.685565203378;1.45923334854;0.823430517943;1.07390070937;1.38784454946;-0.395488784008;-0.183918385309;-1.68901028798;2.13571992013;2.33301003532;-1.36985355724;-1.88568683848;2.08699819431;-2.65694278297;-2.78720127056;-0.315858614468;0.699375978762;1.09619673792;0.0889204982594;-1.87242474006;0.47913084559;-1.51625212224;-0.458562713091;-1.68405094546;-1.63160607572;0.00474897464728;0.167888356221;-0.218133059844;-0.418505284794;-1.27281357255;-2.27621019241;1.03801335134;1.18243769103;-0.659043226339;-0.801136036628;-0.927423080285;0.980843928577;-0.0295580173366;-0.282509785804;-2.7103039315;-2.23752448522;-0.0617717939779;-0.111790209562;-3.08943364041;0.157762641517;0.62068027472;-0.0195215071979;-0.2041012612;1.52667395842;1.2538672587;-0.413555834142;-0.0111224323939;1.77672418145;2.5420133577;0.413477303936;-0.643907929124;-1.08310426509;-1.8946956661;1.46200082133;-3.25525053775;0.649994926535;0.201310590735;0.426134907439;-3.11286576987;0.015962992815;4.21777134539;1.0005315366;-0.0185295524956;0.186771796073;1.51808801681;0.413304743782;-1.80864683343;-1.35692951365;1.09055173192;-0.345627791636;0.242475224239;-2.0476347478;0.0518631434219;1.55157561849;0.710670743773;-0.334960699653;-1.00025073009;-2.26691032896;-2.46474265687;-1.2425803169;-2.13705100757;0.142797846362;-1.33735883407;-2.20194054319;0.797878103236;0.124273131061;1.8295977645;-0.783729744708;0.613791429941;1.79260931412;0.490183619102;0.438718250276;-1.71235956083;3.43553565418;-0.369073135283;1.3509376635;0.269964474845;3.05916477819;-1.78268358915;-0.910184249239;1.44521304965;1.2682363205;0.974308283417;1.4195804612;-2.10210764574;-3.68534936623;2.65441004472;0.12201837426;2.46335714681;-2.53679880776;-3.05657788415;1.63457508416;-0.0423434703426;-1.46797016798;2.31606336212;-2.63669848733;-1.66971307552;-3.22612333833;0.927612753103;2.34013717029;-2.34041191323;2.31445054075;1.2681803361;2.70411960639;-2.71549568863;-2.23125986607;0.769597961641;-0.406314642091;-2.36429466078;-0.322737081418;1.89142498094;2.24557213404;-2.69531534333;-1.00007457235;1.09266357409;0.125832585265;-0.483740519109;-0.218607444605;2.44304509346;-0.252009425854;1.13008326045;-0.646581328161;-0.371256248281;0.419585033801;-0.120545149094;0.953823855303;-1.57517217338;1.20020093409;0.57951638816;-2.60458363986;2.12540760823;1.36401071405;-3.73902028666;0.167163593994;-1.56606005533;-2.39371634956;-0.576210256657;-0.398277315418;0.961120744324;0.690397970475;2.66747275059;3.21370462308;2.23084963289;0.763105216936;2.24585907889;-0.773325585353;0.562759624268;-1.477208635;2.7916103579;-0.309104792887;-2.36405851337;2.32658483056;-2.26978829985;2.16983875287;1.22357496362;3.34776511239;-2.18027756562;2.74615391199;-0.413580639401;-3.05649686918;-3.13525317622;0.776216247261;-0.761587460058;-0.61383550591;-2.02087287735;0.648632057042;3.05700226999;-0.546229757313;-0.0656342544491;1.325127612;2.51365663488;-1.85762798858;0.924000578025;0.488231873307;1.19547834994;-0.312179244406;0.368907213053;2.09465287504;0.288736885153;-0.684243034369;1.7314293316;0.39744963309;-1.53096290713;0.515350264507;2.18289644525;1.44925356216;-1.8185712819;-0.435476858043;0.672102595655;-0.256907237954;2.06568607459;-0.30937889698;0.791408512228;-1.71669693279;0.18141316843;1.32914425966;-2.50004970769;1.40715635765;1.61661441286;0.529532278723;-0.711711609036;2.02136881128;-1.05282248483;2.33322238014;-0.218665357943;1.62522728338;0.591996391642;2.62636256945;0.668905822417;-1.36529871906;-2.14392104354;-2.45248568834;-0.478377045188;-0.055308317647;0.666455401963;0.631986244364;1.63135448604;-1.77769143645;-2.06893551261;1.43074113242;-0.211748620965;1.50448978992;-2.21065575696;-0.328629004966;-0.532555153857;0.269926138489;3.21055682579;-1.87478557198;-0.888080317048;-0.938681176568;-3.98964857668;1.65242590734;-1.40306250806;1.98259320663;-1.29480357242;1.27073773821;-3.4030116978;-0.421678401774;1.88926939413;1.69884125721;3.06065558631;-0.501494350257;0.107686960797;-0.232935295427;2.08105738621;2.60634608951;-0.769877197592;2.41492985502;-0.593894047025;-1.16494940135;-0.529707200935;-3.37627177579;-2.64029364317;1.44808580185;-1.54363250413;-1.28556150809;-0.824052607731;-2.52783147342;1.85058733911;-1.80363920731;0.568736726895;1.20546931061;0.109342797347;-0.162772338513;-1.33449460488;0.104708874022;0.316118873618;-1.56369790977;0.206899669451;-0.898702609688;0.222815551194;0.0389017898971;2.96193251689;-1.54899262373;0.7744167206;0.784739337951;-4.06572653554;-1.37340273811;-0.345368508271;1.73086595774;-1.56549623261;2.04899314323;0.839454393982;0.942152807736;-0.172124872474;-2.31700953175;-0.338053427216;0.456733007172;-1.08971392058;-0.866324409385;1.76182727978;1.79294652749;0.873805529626;-0.350830812073;0.214840585723;1.47086133686;2.27752918106;1.14941359275;1.05861418158;-1.83548288433;3.03774262732;0.13291882926;-0.354268916165;-2.9715715158;-0.683155700485;-0.0664592803174;-1.98900325105;1.2057301258;-0.311518045377;3.12935523213;0.207557987426;0.473124340415;2.38584076798;4.01078539678;-1.62150575624;2.09267919736;-0.583118638778;0.650687194751;-0.861324804005;-2.19378766687;0.738836095072;-3.71199756294;-0.0962593023466;1.76879655317;-1.61315756047;-3.03918847075;0.189770602658;-1.19179908738;-1.93962516201;-0.135359069728;-0.204250075056;-1.77139167088;-0.308419073468;-3.83914887805;1.45993329773;0.0645181846716;-1.88589065876;-2.03345539121;-0.31106069599;1.62279635419;-0.223636713593;-2.14482571161;-0.297812348704;-0.890751198354;-1.49826743804;-1.19668019672;2.32617865393;-1.29420797499;1.03589736347;1.18574477192;2.95887889144;-1.4675531219;-0.0874187709204;1.20767591364;0.63129420815;-1.09605052012;-1.58138100513;-2.48646834186;-0.486663873585;-2.92719234219;0.653311838575;2.29367911028;-1.41503284121;3.88631372158;-2.05285133596;-0.489511912851;2.37096398817;-1.95177813334;0.502477827668;-0.267863207408;-2.14921106933;-1.36908642618;-0.623843739856;0.44347966918;-3.78282394529;-1.13479610754;-0.505960250052;-0.208068687041;-1.17500625513;2.62116937742;1.15450511744;0.765594616959;-1.06989972425;-1.05219874043;-1.47629732544;-1.56402604536;0.630425297448;0.88434183897;2.58288396759;2.1523835136;0.725974920617;-2.96307514908;-0.0255105982898;0.390727058737;0.744448991537;-1.25898612616;-1.88771965094;-1.11000279422;0.16481744285;1.26718543489;-0.291538484708;3.16655962953;2.9775579672;1.36316014411;-1.21488176898;-1.07109846874;-0.601663698365;-0.753973410978;3.77026578749;-0.297497169662;-0.689410141984;-0.691324696518;-1.78217838096;-0.673990333138;-1.52130794329;3.33698730509;1.17920233436;-1.17057177712;1.63618041176;-2.27389062565;-3.28631486059;1.18761614654;-3.84208753204;-0.779935643693;-2.19060219614;-1.25915987914;0.7763117577;2.99886437555;1.64576473635;2.44160010003;1.65090740916;-0.00158749470774;-2.55436464212;0.205759917286;-1.10699847431;-1.14482028951;1.52836648455;2.00685767689;-1.37686490744;-0.579565382558;0.14896255531;-2.25222357789;-2.27335288994;1.00244183483;-1.00591870476;-3.28124089508;-0.474669805193;3.36846977146;-1.4783531113;1.34888109735;-0.774832079233;2.84672531708;-0.865360100288;1.26850045319;3.28159985085;1.83171407339;-2.39073546869;-1.71688104665;-0.231852216568;-2.3452385845;-1.78140356646;1.03047065578;-2.02424995092;0.852812684753;-1.48006895539;1.11047924271;0.45491497496;0.491348056183;-1.57140044816;0.933313357783;1.58264905813;-1.36473007229;1.81590424093;-0.0483781365282;0.782336432106;-0.297631436968;-0.201006000733;0.73419960582;0.621200038821;0.954781068094;0.298360569205;0.387271740935;-1.29672652023;0.0346375889169;-2.68360350299;-0.578139753402;2.41395098125;-1.91911774796;0.381837161113;1.73740872255;-2.41467929466;1.23151092041;-0.386436957573;0.0762955080247;0.0611005480812;0.491514014053;2.30506247817;1.25649357587;-1.59237827525;-1.7590295731;0.286269911637;-0.889460937447;-0.0129762976104;0.989230916646;3.42706560919;0.359793850888;1.60446051589;0.24440555511;2.50351489019;-1.69236272254;-1.29266467863;-1.96178813179;-1.05220072785;-0.0338092782177;2.2333131952;-0.197295416684;-0.218436110196;-2.60885534421;0.909652659791;1.75414621628;-0.284504670862;0.276356093002;2.68389957789;1.93645015306;-0.72764177985;-0.793175389668;-1.3025056089;-2.54552398807;0.0410242236254;0.490192801611;0.34439561133;-0.288940004339;3.11185215744;-3.06640219999;-0.945223854444;1.3843868093;0.0731756914847;-0.413079748911;1.36481282848;-0.954346196931;-1.7677483735;-3.63445466444;-2.94852457504;-1.52350608521;-1.67989425455;-0.600959165256;2.02903997664;-2.61169404861;2.06529926471;-0.201645189684;1.97784997389;0.986474343409;-0.945050448707;-0.540033232884;1.53459746261;-0.556216663416;-0.636460497741;2.08935850276;0.610185856376;-2.02365095047;1.45028639759;-1.3422501687;-1.29681188341;2.47254046892;0.514827475968;-2.75092951638;0.74332038529;0.54584970657;1.46996654806;0.423835918346;-0.612096526925;1.55238692346;1.5472946099;1.81520633325;0.609999730042;0.731346822133;-1.59008112903;3.07470201609;1.2208103564;-3.04969861182;1.51795443711;1.70185625151;-0.477578760632;-0.195281656399;-2.05400092731;-0.0239872005505;-1.52814418686;-2.13616761165;2.23818001262;-0.528993061824;-2.02298382854;-2.44731678932;0.532051574264;-1.3879067362;2.59197189719;1.76086468696;1.37938015761;0.432664280686;1.23321990137;0.160803432245;0.0139710749723;-1.29190399159;0.219201530134;-3.38418842045;0.777933394644;-0.414048090046;0.424161184484;1.42050054388;2.48805413691;-0.913005922502;1.84652166843;0.600178417994;2.81118861686;2.31762855265;-1.07697863628;1.6855829932;0.144749699332;2.9102503559;1.72450267614;-0.296368791927;-0.981952176614;0.503505950898;0.409994425809;2.71484927354;1.46352932725;-1.60589385267;-0.413748844169;-0.56805413578;-0.582992330269;0.143005526344;-0.319103539962;2.98469637119;-0.273707127908;-0.368825410389;-1.06423354551;-0.318846880925;0.270849740569;1.66882074;-0.69532856468;-0.00291249221825;2.46299954155;-2.39855946114;0.415758125339;-0.730392818386;-1.18731645383;-1.35407269373;0.430134815027;-0.68804644142;1.57137219854;2.63235668396;-2.24400703198;-0.471604480692;0.408130969835;0.518368422996;1.07226707899;0.728377899472;-0.00272127999475;-0.96629982707;0.613542346382;2.37312139377;0.656458180632;-2.13275323572;0.370001216609;2.76766684901;1.82392593118;-2.65183167659;2.45365330482;-0.410916106122;-0.690359838096;-0.750530642519;-0.931567345985;0.587491575852;-0.574408826273;-0.540371453634;0.807206126169;-1.96284063988;0.793817451209;0.359667325995;-1.5543528437;2.3239630315;-0.18072284999;-0.0494513668426;-1.27979042617;0.00181225821885;-0.869860603964;-0.186515666477;-2.9765108789;0.787603245125;-0.368684241437;2.08100143427;-2.32199335096;-2.35240782234;1.92785210333;-0.829472259442;-1.4165319473;1.35078960453;0.449877651022;2.29586630609;-2.04752625311;0.545894415929;-0.635991368314;-1.4724182393;0.995646446725;-2.58423489797;2.03939569702;1.69447176198;-1.22587570365;0.718439083525;2.2786835674;-1.64168297895;2.06904608963;1.91700118472;2.23745476898;-2.17732500438;-1.18892452732;2.68154741657;-0.273645985343;-2.68095679203;-0.314672209067;0.668066730504;0.907708897818;-1.53361165224;1.82100493296;-1.88481110181;-0.848268035896;0.634084993358;2.37562817619;-0.94247939439;0.762551410327;2.80484833914;-0.748280417679;1.63621993599;2.91616207374;-0.912245581423;4.20091257114;2.23848397449;-0.674816477974;0.286060958874;-0.535352759479;0.0620904001785;-1.61593694384;2.43017593565;1.79563629606;-0.296538579188;2.15610143023;3.80953008846;-0.0495899559438;-2.59937708714;2.44090687842;-3.26287904909;-0.173256066971;0.451429467319;-0.165880153283;2.14874126367;1.43272840719;0.434981358356;-0.953282200726;-0.858565631725;1.22608536264;-1.64137676879;1.42345088867;0.747786122361;0.634277145299;0.650632554266;-1.51108549204;-2.46689185609;0.283476664242;-0.755073497265;-0.489665658075;0.942071876781;-0.273349763376;-3.21061039706;1.6220825184;0.282350295229;-3.03154199978;-1.87720354599;-1.02293084958;1.00707515003;-2.21107491148;-1.37503012711;0.396544583358;0.613167378923;1.48329634492;1.24631925723;1.29008181613;2.05937416088;0.480147253114;0.544460377199;-1.14643630783;1.45857054059;3.12233757717;2.96659402653;0.917050375415;-1.90724626929;-0.778492475191;-3.2013470052;0.84388558042;-2.65345691019;-2.41803996864;0.699416937537;0.496314964238;0.954548945732;-0.506612687783;-0.17872371619;0.848710517259;0.372548211508;3.37019230923;-1.4008256672;0.748847405324;1.62588137756;-0.868499924842;-0.182078929331;-1.184265839;-0.376349275204;0.54914641732;-0.165226389709;-1.16122780335;0.84907146686;1.31653337093;-0.944020039552;-3.19300960179;-0.966051338443;-1.20888070428;3.60145983499;-2.1902993192;0.505084712565;-0.914519502102;-1.52157044444;0.438241751627;1.28670699544;-0.802641344009;-0.555493247179;-0.253068650282;2.18521459657;-0.0843337366331;1.10078498943;0.0914696891142;-0.983994668648;0.759068203042;-2.5737977592;0.893439384667;1.23995556056;4.52129982236;-2.25937991298;0.732437714558;2.80478926323;0.659278621307;-2.61462874624;0.606766006319;0.756856931181;-1.69435237146;-2.51618276765;3.14311836144;-1.65027165723;0.23929733073;1.55882189203;-1.42045793292;-0.498570769219;1.09718149444;0.243737945338;0.535789334033;0.206546647638;0.79588616912;-0.297413740949;-0.0503430151546;0.457772114367;-0.77635067785;-1.69902651289;-1.79875377733;-0.952480768395;1.78867491417;2.74040806115;-1.25677428231;-2.99965922716;0.223782854849;-0.361660032243;4.33487544748;-1.35669785975;1.39832713828;-0.281424134233;0.251208174293;2.92254693579;-1.18015639603;-0.346622043787;-1.03699333517;-1.77163248407;0.399591387708;1.60676613235;-0.820599123612;2.16253419643;2.40021006923;0.0244749247468
-0.0988317737567;2.57980378107;4.1259656755;0.767751091323;-0.455037906089;-0.643718923143;-1.9791183961;0.835698049453;0.423023288055;-1.43416481613;-0.42305567142;-3.66784257221;0.0797804392517;-2.40355948993;1.26063901114;-1.73805252993;-0.719547421927;-0.782150914004;1.31494579967;-0.230475016851;1.81175848074;1.946455054;-0.254498912659;-0.945740585358;1.79825395468;-1.9325117614;0.942841961599;0.266886595448;0.568384458243;0.390035075066;3.18579291693;0.500531050398;-1.70848817857;-1.01953101609;0.894158922385;-2.58021529576;-2.15712655237;-0.56438696123;1.10999184715;-4.53277269701;-0.420033159789;-0.776132084347;-0.0367622867313;-1.3680624839;1.6654479244;-0.806452140762;3.16067267066;0.507413850549;-0.713600839218;2.53105470889;0.391481064635;0.251028686721;-1.13611441562;0.0900549893577;2.67680876979;-0.512624007621;1.09059290798;-0.205983837703;-0.575331068603;1.27482159948;3.00498602039;-0.338360348777;-3.32134949246;-2.97876954617;-4.05516599524;-1.17248101536;1.47790986771;3.14154282991;-2.59481506821;-1.03355677756;-0.633519179262;2.11085792177;-0.632641130475;2.4129474592;-1.67487076071;-0.748998791003;-2.49807750712;0.424441350757;1.45809241535;1.55764681963;-1.21381018345;0.960488757828;-1.68546761905;1.03508075791;-0.536344010578;1.3364754007;0.707123284464;-1.06212982961;-1.6729477896;2.93733975409;-0.637970650806;-1.22171271062;2.66508971583;1.39912848006;0.114228344633;0.198579268218;0.59722701891;1.31767108636;0.108229184042;0.730108831746;-0.594890574095;1.85132936657;-0.0368392815707;-1.54988456652;-0.737484518882;1.3276060278;0.356247244192;-3.57780992391;-0.570616086325;-0.867837145755;-0.609367193048;3.11940796715;0.753075708346;-1.96426592555;3.25858039548;-0.19561257916;0.723377132527;2.06510168689;2.9588088066;-0.0500759847569;-2.79136777841;1.83321987866;0.0163712833643;-0.362407103762;-1.19586978622;-0.663596961373;-0.870381579235;-0.632612006311;4.13178920158;-0.343399029268;0.701349789775;0.396060617353;0.0454760426241;-2.51367041275;-0.676621384102;-0.338003903178;-1.72691183395;1.02697683098;-0.450387367066;-1.33028827492;-0.868586243067;-1.33001407354;2.81245786143;1.54404750845;1.41883169373;-1.12559893824;-0.316160721086;0.200728533913;-3.09721635813;0.957485567296;1.84090691217;0.729716093788;1.37444180871;-2.18947065531;2.12956019997;1.83339284358;1.07224047481;3.01557040563;2.51954555413;0.593197542217;-0.124243989253;-1.89808350314;-0.27307330791;2.2528139559;-0.67296193085;1.38743503754;-0.29562154681;-0.691156740159;2.69814863261;0.416985283615;-0.426150093216;-3.8024794235;-2.02107269459;-1.30006729076;-0.0512080389919;0.935561286549;1.62731055805;0.655290114891;-0.048513520803;0.706260790114;2.82085617123;-0.655096427016;-0.546094767992;-1.08426336481;-0.224392053382;0.792101199329;0.0390924668618;1.59187765419;0.746880469392;2.22453887855;1.63223668909;0.983614800131;2.18327788128;0.537255360226;2.26804592443;1.60438009256;2.62882946529;-1.41166732689;-1.38689944894;0.118477218005;1.90353479153;0.118799963953;1.21098888514;-1.62937087051;1.73091030413;0.373579980292;-0.669511676055;2.96608884974;-2.97538331293;-1.53260537194;-0.929947585438;-2.12352419112;0.881603649114;2.03853087707;-1.75527631829;0.554528931139;1.58505202659;1.14030946602;-2.15135633205;-2.16815260641;1.92400065096;3.3478157007;-3.69346551313;1.16727131459;-0.730265428118;2.20996165294;1.64563601141;0.533559570023;-0.654323066084;0.232187431553;1.35029623024;0.245821162142;0.618965495108;-0.127570309007;0.191112197136;-0.832884846123;0.450581074427;0.950015933264;1.15263888683;-1.37577753163;0.309671332493;1.30233482088;3.57828133157;-0.770449562535;1.78668441097;-0.284100608696;1.17833898534;-1.62319459043;-1.47550079558;-0.928377892554;0.328314039024;1.20057158357;0.913931506805;3.23577769137;-2.79859136303;0.765243748108;1.16788327819;1.64561650981;3.05419920846;-1.69656593664;-1.3086899224;0.185767972257;1.89018583588;2.56623237033;-0.900745907323;-2.69144238107;-2.49413054611;-1.47705960089;2.0057844074;-0.112308208903;0.975569167193;1.3888115138;3.15185046644;1.73576892117;3.89368138235;1.33421180084;-0.937438994724;-1.20941490562;1.4784346197;-1.14183213645;-0.38422851196;4.07666438588;-2.74116618528;-1.63226510599;-0.786530254532;0.819884337701;0.521896688176;0.454997989154;-0.966005471754;1.24286329356;-1.61850074444;1.81816731849;-0.713222769312;0.0992207659931;0.0704489237882;-0.294424339541;-0.20531625647;-3.60837375521;-0.0384910508928;0.655709119312;-0.471766001099;2.61252515729;0.717772129796;1.32228074772;-2.34615308719;-0.806659088166;0.768989067785;2.38159320929;-2.52502308126;1.53088014875;-0.338379616806;-1.2528858031;-1.15279985476;3.53743450918;1.11445263219;-2.63982578126;-3.52265639759;3.83840210825;-0.791329452286;2.30595014705;0.29457841785;-1.59107112303;-0.429269169167;-1.21132801068;-0.0259616293625;1.2563080325;2.97274651494;-0.906392868923;-0.597322265927;2.73845478175;-1.65426970092;-0.763399226411;-0.401740825529;2.82619307448;-2.85090349195;0.22923691376;1.55060237121;3.67363570644;0.134315675237;1.59668909936;3.34590311409;0.201725971065;1.09898998313;1.20342341313;2.33471012087;-0.755931854066;-0.69325853356;2.86982209621;-1.52348855981;0.595497276555;-0.427625125333;0.766236118625;-2.13527162114;1.71757624758;-0.574173498678;0.281917597427;-1.49329011744;0.32426534734;0.40463306207;0.657740961543;-0.0731716331693;1.35867967923;1.16131298037;-1.86306218467;0.107567478804;1.38214423911;1.43447737087;1.69924538455;-1.96810159111;2.67841714825;-0.0925216165875;-0.540385763235;-1.87187661197;-1.06440614929;-0.59475273714;-0.799527516181;-0.551532784372;-0.352782676158;-3.17698438378;1.08697677463;-2.11420117664;2.73853669674;0.918508953916;-0.811588452215;1.07032736049;0.311346569511;-0.514801488053;-0.950801331197;-0.431202914932;-0.889545741307;3.35359645948;-0.370979210929;2.35571958349;0.0482640304073;1.79694014598;1.34400784014;1.56009410705;-3.12619621762;1.89565370572;-0.501793922021;1.19589590342;1.46991219494;-2.77555401945;-2.25304124416;-2.4717700395;-0.363463988818;-1.1050708707;1.55055045062;-1.40934147174;0.886682751202;1.05254457688;0.203984648333;1.22908080422;1.27132721109;1.09998140176;2.3393046561;0.698472135872;0.433324938689;0.358909868506;2.21883370635;-3.08110190835;2.91897948623;0.0347683252775;-2.45154064927;1.60357768992;1.30971573558;1.12406433257;-0.995340090018;-1.68054218718;-2.24343927892;0.366343527478;-2.42185830351;2.07066196775;-0.249176285891;2.46149419436;-0.383114225543;2.28910483946;1.24661526064;-2.11967410811;-0.428563180017;1.81536375476;1.08849888754;1.21762722736;-3.5363948797;-0.516784604165;0.262766000101;-1.79621384163;0.442323537923;0.475455364547;-1.18818703692;-2.4681981348;-0.815301129296;-1.23946985349;-1.21940379415;2.53037922768;-2.75194876194;1.44176557629;0.674065900796;0.569136814388;-2.05181054236;0.512435336192;-0.563373942033;1.99099617357;1.31658096025;2.41995952797;2.9125238671;-1.32525248633;-1.29358473932;0.220243449992;-0.821484619219;0.134994988511;2.3885592608;-0.312688272949;0.549633209527;0.66782183427;0.674963769971;2.05313280873;-0.377819042114;-2.64343595532;-0.661441450963;-0.399313437142;1.70527177192;-2.819961969;0.942451884692;-0.372773406272;1.83067913207;-0.979017311593;-0.431962248861;0.910778054409;-0.751777976813;0.917289452588;2.52186113869;-0.767431269151;-0.0753326681384;-0.225998251281;0.952966474122;0.901264089462;1.01270260444;-1.34533793294;0.649692435858;1.40695415101;-1.81744075622;3.50208371747;2.12631621032;-0.893702157616;-1.34108422787;-0.580056490223;-1.77909095946;1.77543978643;-3.46207954612;0.646145711251;0.0220306708141;-2.51224527414;-1.45323688284;-2.18947706974;-0.637810158679;2.26107260194;1.11055652399;-0.566786400504;-1.39118098048;-0.441361500409;1.38449488169;-1.52728273236;0.291451017679;1.00775047655;1.47707610458;2.04217885093;0.484130573066;1.42612629891;1.56583789475;1.74847095337;-1.46119027036;1.31627016214;-0.591211345273;0.573250928902;1.03596802677;-0.466860687402;2.55109094422;3.33374672572;-1.96353033524;0.669550830704;-1.12069525163;0.566993290658;0.672140857416;0.0557291814515;-2.53047562818;2.02227931663;0.970175504287;-2.0671730816;1.05592340099;-1.71464629125;-1.55892856024;-0.282734936971;2.2211787545;3.23382537811;-0.540551544387;0.752264585349;-0.227080049979;-0.790201846868;-0.4308105434;0.930787902826;1.41687922961;-0.369931595921;-1.15708102139;1.03216246432;-0.6320374056;-2.02814856383;2.45653841962;0.988984703656;0.355010508334;2.25879758777;-1.18642969563;-1.25069145915;-2.05908597643;0.11744822041;2.72959100371;-1.63810943489;2.08834015301;-1.33969544014;-0.877796283326;-0.999001405624;0.199197048008;-0.0876936384516;1.25938322026;1.72470668033;-0.146825150863;1.21771386206;-0.219068288375;-0.24422353329;-2.90273921904;1.26403514666;1.78742862266;-2.02470291481;-0.354379835706;0.572729947147;0.277020699551;1.01835077181;-1.79287807376;-2.61252544082;2.24252690129;1.827497755;2.7279168974;1.46628233155;0.938129563735;-0.069865867881;-0.910495741431;0.510589102441;-2.65712023506;-2.19290292958;1.58135973079;1.11765897053;-2.19781541799;0.111882656108;2.54075493864;-1.77297790616;2.14866876257;0.542925992447;3.11567334268;-0.577092221859;-2.1597759619;0.878960716999;-0.152063196887;0.0486129269677;-1.1402534166;1.02933881567;-0.355347305168;0.133062553019;-1.05467044927;-0.353808500865;-1.95723460271;-0.52009311026;1.29555329793;1.9536116033;1.27270621032;-2.17811080881;1.55869983879;-3.2175447522;0.641525350181;-2.53639949061;1.84873827545;0.396005042768;-0.832328221213;-2.21319837183;-1.00515810546;0.0656783295558;1.15943887642;3.26661011309;1.78633537345;-0.446008062478;1.7445775608;-1.03390009995;0.0444011806999;0.463553531936;-1.73726094903;-1.90232531743;-1.39331082598;-2.78648775225;-1.78784309733;-1.4436193991;-0.0678805169563;-1.79335707554;-0.227058999157;3.27021344247;-0.0486004929926;0.731981917578;-1.65556119064;0.856738749766;-0.247919339004;0.502198516824;2.3444929267;0.0993345067772;3.59440368116;2.45670308519;3.62093018824;0.824286568995;-1.64940660198;1.5799864645;0.0297783723118;-1.66902452493;-1.6723926265;-0.633275793792;3.67484764663;0.837390645159;-1.87390268448;0.946517011116;-1.3619661697;-1.23288530094;1.88306557724;-0.910717739912;0.520826725614;-3.79432927939;2.69214795484;-2.64485114275;1.462556503;2.10401434192;1.6052518056;-1.13489378983;-3.37395114321;-1.97523115701;0.215014668921;0.606909465028;1.35169150831;0.405716230844;0.339230756752;0.609139583962;-0.464843871974;-1.65455586647;2.63760770936;-0.846610071812;-0.366829848923;0.181058483995;2.56335742844;0.163014617641;2.17483010169;2.2817237807;-0.983170849856;-0.23426050204;-0.414930247022;1.35398603537;2.40869867625;-0.308981392241;1.25698572006;-0.209526457843;-2.61580281444;0.47838922471;3.57918208539;-0.543256920917;-0.0563371810106;1.46349448053;-0.470151196691;0.987061226348;2.73728351654;-1.79318105671;2.13357703311;1.51498211938;-1.61176510706;3.67244432914;1.51938793564;-0.0987886361062;0.812875201433;2.11576307274;-2.13345636345;-1.59989692045;-0.373801698875;0.784785699537;-1.73869064545;-1.21798817454;0.795522523006;-1.314780203;-1.52972717263;0.0256409642028;3.36257546502;-0.0524920115886;0.117039307875;-3.03597364287;0.446501304662;2.70127389136;0.781518141851;-0.856901634742;-2.64748938571;-0.610975090922;-0.108263619881;-2.40117505322;-0.199022409881;0.560148607576;0.694945246702;0.532372090509;0.14385989589;-0.277606472211;-0.536255534127;3.38429648754;2.86671597528;-1.07805901108;-0.204559009406;-0.321302484042;-0.829058178566;-1.02941062462;1.80630837499;1.20397914342;-1.21536646177;-2.37999658763;-0.133873401374;1.32070537606;-1.61925520069;2.35056481757;0.451815321356;2.91531878335;-0.0175120027954;1.99117871582;2.91161999353;-0.446971447739;-1.04099080791;1.98207229457;2.89144695734;-1.1437818058;1.54800228052;1.33388951499;-0.0976441995526;3.21552462887;-0.735850461323;2.57354770498;-1.68883759521;0.416721181207;-1.44240334159;-2.67718709706;-0.706004164613;0.742272028413;1.87239273348;2.0012699865;2.161376274;-0.0592403077368;-1.50265149878;0.823996486924;1.61670232631;2.06482742405;-2.44150904115;0.0549353877048;-2.19322694864;-1.35865870695;-1.68013481742;-0.171477418096;1.28043624905;-0.548390405396;1.61544968283;0.171316077228;1.55054863831;0.256515889212;1.39545788901;-0.855410766504;0.227588032621;-1.2540001278;-1.87917748742;-1.57193922432;2.22270713356;1.87556309397;1.45697558368;-2.16243664428;-0.403714059092;-4.91439101548;1.62070417952;1.97637642937;-0.836730752228;-0.231262525401;0.582224681365;-0.67117988001;-0.268094333111;2.18874347415;1.05095220424;0.339762895806;-0.465822944311;0.801957185147;0.00502165737437;-1.64282576303;2.9361035135;0.950297130608;1.73709300514;-0.932514346991;0.91862331163;-2.31795186872;-0.983916498559;-2.36741393402;-0.214536225631;-0.937936967441;0.111513267934;2.02603671815;-1.90323023373;0.435642432423;-1.3682917978;1.69442959062;2.26566408304;2.12164891313;0.0215095583117;-1.05371025067;2.30349245718;0.426024310617;1.34663024572;-1.31451477074;2.47240058346;1.49754557518;-0.152021639328;0.551998980201;-0.901664727643;-1.22485603486;0.439689835321;0.60622327486;1.02617147112;-0.871966704724;-0.653952237433;-1.32999615287;-0.789652011423;2.72921957965;0.0511403898726;-0.585600752026;1.76976281078;0.68417249958;-1.16680033427;-0.306922853794;-2.00506970491;-2.32277044014;0.629666080822;-1.12779842411;-0.884070651068;-1.3490070086;1.1976445504;-1.38118589479;0.776971772299;1.71468434556;0.0544105757237;2.8702674023;-3.88427202648;-1.49087864886;0.792060727217;2.02239304735;3.23161953397;2.54807197982;1.02896769997;1.23558822401;-1.30934423996;1.72045289879;0.915951487888;-2.12586311403;-1.98968386091;1.65618439657;-1.06154113599;0.327582919726;-1.6833877908;-0.737856787401;-2.81259599812;-2.05297212484;-0.00114904409081;-0.433608621964;2.57099477046;2.19262114422;0.625914738755;-0.278899128192;0.225655413774;0.539061224445;0.451408226161;-2.2190245738;0.670770280679;0.270710488702;1.21575234146;0.487261416241;-0.950066688354;0.717966159524;0.916244743884;2.89099786173;-0.445390123961;1.01200154833;-0.329015128912;-1.36184237981;-0.393391414307;1.59222419694;1.30877283831;-2.49893828966;-2.92120177019;0.449429155341;1.06357083913;-1.4753379336;-0.133919586454;2.11127066822;-0.978527096322;-1.55526131167;-2.57936221621;-0.667391296757;0.0819523612598;0.66067158212;-0.570679238407;-2.12405766531;-1.59763684137;1.06647244041;-0.737182043695;0.746057768276;-2.59360397213;-0.365572344313;-0.309465636239;0.857675806853;0.144007917926;-2.02003766952;-0.45510644724;-1.5276585144;0.111767020707;-2.01802103746;-1.6872869358;1.5681133884;0.21266801926;3.6099665915;2.28392570914;-1.39071085828;2.19601375545;2.60934991768;-0.879305722595;0.25339717625;0.703877806664;0.703094176986;-0.00420353087882;0.350235132248;-0.226575674503;-0.806448228427;0.183938585903;-0.700281967203;0.152241237249;-1.39761591707;-1.27919586717;-1.07632681671;-2.44619059727;1.10527465483;-0.18607814087;1.94554224638;1.48694757677;1.20612913574;-0.737830818568;0.533463034291;0.851890878311;1.76535141884;-1.79693444042;-0.395380336518;-1.83243194206;1.05338474225;3.58853499633;-0.823555095403;-0.353093736032;1.57094669468;-0.107261055788;0.849403734226;-0.631859514127;-1.47466469046;-2.41793906608;-1.85029138805;-1.23711414175;-0.728928636672;-1.91877162638;-2.86362806713;0.652943142571;-0.169677567358;0.618990226854;0.57828548403;2.79582057044;0.116657609819;1.81722954368;-2.8222490082;-0.121414721341;0.891266623896;1.34565152886;-2.5308930452;-1.2963984962;-0.792867356195;-0.129938082033;0.939110081367;0.770313091732;-0.204950697636;-0.511277349202;1.06817469329;0.50400557979;0.657819101942;-0.354059694504;2.35537574263;1.74603866705;-1.11283937577;-2.85669519573;1.71759617872;1.07373427421;2.12731508947;-0.93929235993;0.476396870156;-0.17029255674;-0.862214985941;1.41602463172;0.103276182021;0.213836244076;3.50833049825;2.70364744915;0.284785918408;0.0389454697893;-1.49397446041;-3.29672625578;1.91975389328;-0.533912725994;0.928165242028;2.614884642;-1.89116169734;-1.14302416972;-3.00870890036;-1.37418418693;-0.46365616806;-2.03107049245;1.05491735867;-2.74901565074;-1.03944881923;-1.35404680551;-1.1710932799;2.40286768148;-0.591418185114;-0.446804168314;0.271366794877;-1.45748278742;-0.535809999044;-1.86027997471;-0.176107070354;-1.341552079;-0.691786297448;-2.48345191007;-1.61203461896;-1.31174807417;-0.232144523344;-0.00997785041279;-0.968751379624;1.66826184632;0.779717649976;-2.7985617381;2.92868514109;-1.46338975668;-0.125921148356;0.287907327744;0.0206358469424;-0.515052371372;1.96071652505;-3.3193012215;1.24564523642;0.311028740843;0.782374223157;1.358987674;2.48272616701;1.89051080358;0.0462706354068;-1.63248333284;1.36685241114;0.851804655099;-3.13310900747;-2.33000330913;-1.26382433721;1.06552189927;-0.0912003604023;-1.66649624735;-3.76520149852;0.857506509951;-0.943375902321;-0.149798291;-1.59698495595;-2.04003597788;-1.23838166694;0.556638768227;1.79042780425;1.41873900605;0.85150840493;1.34852055571;-0.405877489808;0.519481337995;1.92897933825;-1.23767223237;-1.47930145815;-1.87057612703;1.91035192343;-0.982274670583;-2.10173723245;-0.277675723136;0.540255112187;-3.0466378277;0.88589404716;3.36407849465;-0.692477171158;1.67986388566;-1.81683963837;-0.555750616779;1.8502601732;2.04089459799;1.9571963219;1.198039547;-0.0957924286755;-0.97071993644;-0.707589849535;1.61153462754;1.05015828217;2.36942756727;1.18100752665;0.445941072109;-1.36198733177;1.30786531206;2.50452975095;-3.00741861217;0.471860857138;-0.0533054219661;0.0432279551461;-0.9398453269;2.30996640391;0.845285985405;-0.938918863205;2.18049481453;2.26873442419;-0.275539106471;2.2414609288;-1.26279206291;-1.52012714281;1.01173801172;-2.38172015075;-0.780954080516;2.42826567934;-2.23159520043;0.753769425542;2.46537175355;1.90540630462;-2.7454369619;-0.194261739398;0.0869546690726;-2.50499550981;0.999079959913;3.28801783485;-3.45740116074;3.64107801683;0.540521077167;1.16083686038;-1.59984158844;2.11670538832;-0.436253023557;-0.800071972576;1.56566136473;0.867764494903;-2.35175126295;0.207285612779;-3.12857237785;1.77576422531;1.39851257475;3.04738482412;-0.670956575722;-0.741391289469;-1.79063272622;-1.43806575691;-1.17818646674;0.806817992157;-0.807195157898;-0.691347762623;1.54989912982;-0.625465795736;-0.258513842003;2.03614539184;-0.782107250009;0.925543204308;0.228872884439;-1.09501202904;0.471361540466;-2.81320503457;-0.0507260643979;-0.941941118672;1.9045048386;-1.75309121949;-0.592930890062;0.653902749325;2.95759929491;-2.0110175206;2.86908477775;2.14581358431;1.72406530428;3.56383815409;-0.949862033126;0.728150124417;0.764015220436;-2.33799398943;-2.03166685438;-0.873618966923;0.479406500444;0.431160362641;-2.72201138227;0.540257743781;-0.0575366970378;1.19919966667;0.862426984991;0.846023065559;-0.252783200692;1.49542916811;-0.386304753295;0.000329447223303;2.08025214105;-1.98824924255;0.618768214056;3.18344124504;-1.31721658288;-3.32245574339;2.18501421319;-0.537287466055;2.98926530511;1.49233435601;-1.32328571846;3.07383696593;0.744085622442;0.208915407917;-0.0797165795126;0.640650637282;0.147799458055;-0.665789801693;0.782496874161;0.21976210524;-1.28036698931;1.0703397708;0.53215086348;3.90218616355;-1.68592903192;0.0331893387784;0.671815171154;1.09123423633;-1.01050958572;1.34173828433;-1.44345358818;0.246288393093;0.477612780387;1.6637676365;-1.67453093067;-0.758304334699;-0.0354959727019;-0.497398785993;-3.55345828804;-1.52202901537;1.11669072298;1.09482888451;1.1958248182;-2.46375365618;0.479386623778;-0.579120149859;1.3184708974;1.74956207129;0.489794956259;1.40569375215;0.945253534701;-0.233539952016;-1.29343722274;-0.137581320458;0.905858576172;0.599973420344;-2.89103581052;-2.08556938785;-0.899552803652;0.752566591076;1.35744273988;-1.78971580312;2.9260725724;-0.417368784972;-1.06420931104;1.58011461279;0.348714595993;4.03300539327;1.00615819741;-1.52156157766;3.82144043597;0.305243479918;0.251329582529;2.34870088114;0.745174537692;-1.82581347996;2.91404424283;1.68243885946;-0.265783460999;-0.723985248005;0.804515225909;-3.02465812936;1.17177902512;-0.217188417009;-2.48781204334;-0.599510355463;3.65799201129;0.402538842907;0.262387561786;-0.5779615679;1.03986414553;1.7537453236;2.78224278176;3.29973670258;0.389704702747;2.09249565092;1.56849358968;0.889765276792;-1.7004007823;-1.31543235465;2.19843052119;-3.42910232211;1.35912829441;1.17937272917;0.17547139628;1.36037980242;-1.74288782091;1.39916179963;-0.446411594377;0.994363026676;1.51572366902;1.81698676363;-0.231913530628;1.3732089934;1.07210248816;0.998637554172;1.70415021213;0.0419152730902;3.54503929768;-0.607986236648;0.245332212639;1.75179351842;-1.75159332495;1.4554840351;1.79607897373;2.01359125354;-0.541265581815;-0.755406257783;-0.891407403232;-0.87454423256;2.57690288553;0.826986815241;-0.197827503035;-0.229059250528;-0.562839116014;-1.1831351295;-0.610130874307;1.76679653438;-0.0312004684264;-1.63297706409;-0.568659991875;-2.41884843703;0.934114153449;-1.28048897609;-1.12746403889;1.2130728878;1.29729226143;-2.09539375902;-0.119067226435;0.641514192376;0.777093375318;-0.666463127037;0.95662233106;-0.27252157511;0.214976952524;-0.665632517506;1.82962203177;-0.306709179625;1.23386273744;-1.80755990404;0.441858670901;0.343622382541;0.152827991406;-0.658309859394;3.48321215667;0.0364807391439;-2.20669902964;-2.12828215828;-0.34972525744;-0.663649161249;1.47206873427;1.17639554568;-0.8686168312;1.1695635239;-1.41221989695;0.0297904098699;0.146150149839;2.43369398324;0.681739104555;-4.08459640628;-1.4866439406;-0.737052433741;-1.87650661673;1.21608013721;3.51989418671;-1.28452414169;-1.30641076567;0.196515185632;-0.227310323217;0.262856975425;1.12690228924;3.63843910759;-0.231195273619;0.826609934687;-1.22535561845;-2.37498011019;-2.72557621672;1.22086851551;-0.760218707653;-0.248818608798;-0.292368597947;2.32079996665;-2.36634158992;1.0953279938;-0.855074712663;0.0365634563887;0.751309811104;-0.509188592203;2.82855084434;3.60604113138;-1.77059845401;-2.08489108523;0.668240114847;-0.826441118634;-0.992739826146;-3.26480256703;0.75832210062;-1.0541249912;2.24231689884;2.13062614909;-1.34928253547;-1.87756013093;-0.254987744522;-0.490550211497;0.498583784339;-1.08603791415;1.29929892404;1.8307378767;-0.705645031394;1.46784877524;1.4679967468;2.13812946061;-0.168942404829;0.402111839826;1.06700729499;2.5015463358;-0.267879409469;0.94484768902;-2.15542007287;1.18453373358;0.480371636896;3.61147659095;-1.03286395227;1.17927723117;-1.21576800989;2.40996149681;1.657266863;-0.0791785831414;-1.61994563349;-1.20675732821;0.855262704936;2.22199281924;1.05364814113;0.738327023554;1.11460036377;1.8000412652;-0.15642257395;1.64992142357;2.02287961564;-0.517921242675;2.10662599943;0.673849816901;1.8718899291;-0.977987642435;-2.05895483249;-2.84385017679;1.3078767368;0.434151730735;-0.430772794725;-1.82024703075;0.0645677090575;-2.97388917676;0.854640477162;1.72333154498;2.27956136513;1.11060496603;1.81452558118;-0.959620867937;0.74542492214;-3.01608922049;-1.04308523208;2.3729598889;0.362303476954;-0.833195654407;2.65980359648;-1.00586900246;1.71028642831;0.783729544581;3.5744914108;4.51078166314;2.19025941925;-0.848017848049;-0.706342728587;1.66385736497;-1.16600975104;0.0651513323205;0.754968252779;1.00633898286;-1.38508297277;-0.330268259839;-2.96916446446;-0.457066763141;-1.71297515976;-0.0405817085981;1.14873318571;0.846059123899;-0.426037930447;1.01054372055;0.060801552615;0.695057631035;-0.415377689812;2.06801872646;0.908050058009;-0.761762450588;0.58275448053;1.97027179247;2.67701064997;-1.04389478634;1.11714201339;-0.849378841147;-1.71234235732;1.82965489718;4.04032276414;-1.8245346196;3.25776917026;-0.45046900938;1.05328253171;0.0065911317271;-1.5750834005;-2.73669303728;0.412404918196;3.66601391575;-0.303249973517;-0.201077465836;0.198605135555;1.86675918884;0.734287447617;0.854081664943;0.0804253793835;2.48146826661;-1.92440502923;1.86685663488;-2.59952478278;0.416115183381;-0.0260833749227;-0.327543597959;-1.25170053139;-1.07340793479;0.73040139269;-0.533000163499;-1.56431280454;-2.28559129364;1.85702213907;-1.5972137823;-1.10048846427;0.802019255189;1.39742800681;-2.86998260829;0.544619932454;-0.224587795664;1.19886743995;-0.616402619559;0.250917156087;-0.211253620041;-0.676922227652;1.97053958529;2.92742678389;-1.81226918191;-0.916593749166;-0.178597079783;1.04803315089;2.44619739773;-0.139648436425;-1.53912811903;-1.79274870797;1.75743963137;-1.23164622435;0.264977431673;-0.588667168233;-2.26664427044;0.845289765939;-0.390178343791;0.213792984226;-1.11928474511;-0.43847584721;-0.491362483296;0.707505880166;0.781238081041;-1.64609553451;-1.15239934944;1.63460223556;-0.296547776649;-0.522161819548;1.52026155479;-1.10179068168;-1.43552634276;2.0144809066;0.25243288177;1.57588280201;0.356521791431;-0.440954155565;0.947275710383;-2.01184561279;0.892266853746;1.09265379772;0.787359374862;-1.97651972451;-1.81982451251;1.745496855;1.68857972966;-1.95780795449;0.730607120735;-0.0531171774646;0.399916515282;0.133363896316;1.13094522923;-0.684356955853;-0.72451303958;0.477470357102;-3.19538676219;-0.0773275037018;-1.32406775987;0.0622975756047;0.190486441015;-2.08496472957;2.53396234231;-1.37957116384;0.31393353657;-2.89394670745;1.48209031251;0.819641114579;-0.0994096378893;-1.56925885499;1.12044212088;0.270766920066;-0.332668410133;-0.251063416833;1.13705870493;-3.28869914312;-0.684925734549;0.128818557191;-1.40965834298;-1.62218367515;